{"architecture": "{\"module\": \"keras\", \"class_name\": \"Sequential\", \"config\": {\"name\": \"sequential_3\", \"trainable\": true, \"dtype\": {\"module\": \"keras\", \"class_name\": \"DTypePolicy\", \"config\": {\"name\": \"float32\"}, \"registered_name\": null}, \"layers\": [{\"module\": \"keras.layers\", \"class_name\": \"InputLayer\", \"config\": {\"batch_shape\": [null, 28, 28], \"dtype\": \"float32\", \"sparse\": false, \"name\": \"input_layer_3\"}, \"registered_name\": null}, {\"module\": \"keras.layers\", \"class_name\": \"Flatten\", \"config\": {\"name\": \"flatten_1\", \"trainable\": true, \"dtype\": {\"module\": \"keras\", \"class_name\": \"DTypePolicy\", \"config\": {\"name\": \"float32\"}, \"registered_name\": null}, \"data_format\": \"channels_last\"}, \"registered_name\": null, \"build_config\": {\"input_shape\": [null, 28, 28]}}, {\"module\": \"keras.layers\", \"class_name\": \"Dense\", \"config\": {\"name\": \"dense_5\", \"trainable\": true, \"dtype\": {\"module\": \"keras\", \"class_name\": \"DTypePolicy\", \"config\": {\"name\": \"float32\"}, \"registered_name\": null}, \"units\": 100, \"activation\": \"relu\", \"use_bias\": true, \"kernel_initializer\": {\"module\": \"keras.initializers\", \"class_name\": \"GlorotUniform\", \"config\": {\"seed\": null}, \"registered_name\": null}, \"bias_initializer\": {\"module\": \"keras.initializers\", \"class_name\": \"Zeros\", \"config\": {}, \"registered_name\": null}, \"kernel_regularizer\": null, \"bias_regularizer\": null, \"kernel_constraint\": null, \"bias_constraint\": null}, \"registered_name\": null, \"build_config\": {\"input_shape\": [null, 784]}}, {\"module\": \"keras.layers\", \"class_name\": \"Dense\", \"config\": {\"name\": \"dense_6\", \"trainable\": true, \"dtype\": {\"module\": \"keras\", \"class_name\": \"DTypePolicy\", \"config\": {\"name\": \"float32\"}, \"registered_name\": null}, \"units\": 25, \"activation\": \"sigmoid\", \"use_bias\": true, \"kernel_initializer\": {\"module\": \"keras.initializers\", \"class_name\": \"GlorotUniform\", \"config\": {\"seed\": null}, \"registered_name\": null}, \"bias_initializer\": {\"module\": \"keras.initializers\", \"class_name\": \"Zeros\", \"config\": {}, \"registered_name\": null}, \"kernel_regularizer\": null, \"bias_regularizer\": null, \"kernel_constraint\": null, \"bias_constraint\": null}, \"registered_name\": null, \"build_config\": {\"input_shape\": [null, 100]}}], \"build_input_shape\": [null, 28, 28]}, \"registered_name\": null, \"build_config\": {\"input_shape\": [null, 28, 28]}, \"compile_config\": {\"optimizer\": {\"module\": \"keras.optimizers\", \"class_name\": \"Adam\", \"config\": {\"name\": \"adam\", \"learning_rate\": 0.0010000000474974513, \"weight_decay\": null, \"clipnorm\": null, \"global_clipnorm\": null, \"clipvalue\": null, \"use_ema\": false, \"ema_momentum\": 0.99, \"ema_overwrite_frequency\": null, \"loss_scale_factor\": null, \"gradient_accumulation_steps\": null, \"beta_1\": 0.9, \"beta_2\": 0.999, \"epsilon\": 1e-07, \"amsgrad\": false}, \"registered_name\": null}, \"loss\": {\"module\": \"builtins\", \"class_name\": \"function\", \"config\": \"sparse_categorical_crossentropy\", \"registered_name\": \"function\"}, \"loss_weights\": null, \"metrics\": [\"accuracy\"], \"weighted_metrics\": null, \"run_eagerly\": false, \"steps_per_execution\": 1, \"jit_compile\": false}}", "weights": [[], [[[-0.06857309490442276, 0.06345874071121216, -0.04198112338781357, -0.06400147825479507, 0.04204083979129791, 0.06733149290084839, 0.02504526823759079, 0.0756007581949234, -0.04263422638177872, -0.020026516169309616, -0.018501199781894684, -0.03476535528898239, -0.008754774928092957, 0.023498408496379852, 0.06303323805332184, -0.057558923959732056, 0.05004863440990448, -0.07785535603761673, -0.05524463951587677, -0.009693101048469543, -0.080348439514637, 0.014595158398151398, -0.034953802824020386, -0.012734077870845795, -0.05442497134208679, -0.006064914166927338, 0.0149211585521698, 0.05273032188415527, -0.07120978087186813, -0.0806996077299118, 0.035282865166664124, 0.052557334303855896, 0.03489212691783905, -0.07755512744188309, 0.027774177491664886, -0.03240077197551727, -0.07696719467639923, 0.07457059621810913, 0.07803377509117126, 0.014967672526836395, 0.0774141401052475, 0.032789409160614014, 0.051474928855895996, -0.020997878164052963, 0.06374660134315491, -0.06608686596155167, -0.047161079943180084, 0.07541309297084808, 0.07882080972194672, -0.06044524163007736, 0.06476345658302307, -0.0035472363233566284, -0.029680661857128143, -0.041311994194984436, -0.06779569387435913, -0.020820118486881256, -0.04819239303469658, -0.026657141745090485, 0.07928690314292908, 0.06400340795516968, -0.01286354660987854, 0.030638791620731354, -0.009943142533302307, -0.07009059190750122, 0.02674832195043564, -0.08027256280183792, -0.04160809889435768, 0.0762806087732315, -0.04885071888566017, 0.06377580761909485, -0.012486651539802551, -0.01210787147283554, -0.07760941982269287, -0.02485935389995575, 0.0008161738514900208, -0.06007775664329529, 0.002120472490787506, 0.07653214037418365, 0.0006303787231445312, -0.06197630986571312, -0.007286600768566132, -0.01775859296321869, 0.0603024959564209, 0.004749849438667297, 0.07110744714736938, -0.030757606029510498, 0.06925471127033234, 0.03337410092353821, 0.038188181817531586, -0.001784689724445343, -0.07811179012060165, -0.06346432119607925, -0.029684141278266907, 0.020420849323272705, -0.006844080984592438, -0.05324050784111023, 0.03557928651571274, 0.0014634206891059875, 0.03802992403507233, 0.08124735951423645], [0.0390021950006485, 0.07545660436153412, 0.021815307438373566, -0.062361493706703186, -0.0667177140712738, -0.07761672884225845, -0.021115809679031372, -0.07034424692392349, -0.052758216857910156, 0.039984554052352905, 0.043982863426208496, -0.08053916692733765, -0.04207520931959152, 0.04791922867298126, -0.001594647765159607, 0.07572238147258759, -0.056071653962135315, -0.0075293779373168945, -0.038078222423791885, -0.05877009779214859, 0.07581019401550293, 0.00045070797204971313, -0.06781245023012161, 0.06709018349647522, -0.05816292017698288, -0.06717708706855774, -0.02432221919298172, -0.05461960658431053, -0.0742163136601448, 0.05089150369167328, -0.07314471155405045, 0.025807715952396393, 0.04149629920721054, 0.02725157141685486, 0.058619871735572815, 0.07995648682117462, -0.06214920058846474, 0.041819095611572266, -0.05150086432695389, -0.06718716025352478, -0.00030015408992767334, -0.02012847736477852, 0.021144412457942963, -0.06682036817073822, 0.0008118674159049988, -0.07932323962450027, 0.04146559536457062, -0.06305879354476929, -0.005018264055252075, 0.07170407474040985, 0.018603205680847168, -0.0010635033249855042, 0.03238549083471298, 0.014302529394626617, -0.057825684547424316, 0.039392344653606415, -0.016318127512931824, -0.07864195108413696, -0.08075012266635895, 0.018603086471557617, 0.06404684484004974, -0.030493613332509995, 0.029162131249904633, -0.0671464055776596, -0.0012553706765174866, 0.07901139557361603, 0.03450792282819748, -0.0293283611536026, -0.016151152551174164, 0.04256964474916458, 0.0009175240993499756, 0.07305756211280823, 0.07877075672149658, 0.053919777274131775, 0.03794734925031662, -0.08159267902374268, -0.04817703366279602, -0.006134837865829468, 0.05959843099117279, 0.010909028351306915, 0.00423932820558548, -0.03620051220059395, -0.03635479882359505, -0.00976891815662384, -0.07979441434144974, -0.06562744081020355, 0.041112154722213745, 0.04087202996015549, 0.010376885533332825, 0.05571697652339935, 0.07788972556591034, -0.07548313587903976, -0.07009734958410263, -0.04239572957158089, 0.06612807512283325, 0.042649030685424805, -0.020421814173460007, -0.07872206717729568, -0.03333377465605736, 0.08183641731739044], [-0.03758145496249199, -0.03772181645035744, 0.04685509204864502, -0.03904605284333229, 0.03848353773355484, 0.05097539722919464, -0.05607409030199051, 0.04246899485588074, 0.01593109965324402, -0.06725669652223587, -0.08074898272752762, 0.011397235095500946, -0.07456354796886444, 0.04455284774303436, -0.035713739693164825, 0.07464349269866943, 0.0798063725233078, 0.043107688426971436, 0.019388005137443542, -0.03902595862746239, -0.05191226676106453, -0.039630092680454254, 0.04866276681423187, 0.022186875343322754, 0.04456590116024017, -0.009053841233253479, 0.009770408272743225, 0.060989826917648315, 0.004196062684059143, 0.023127898573875427, 0.031151093542575836, -0.07944542914628983, 0.045628562569618225, 0.04012291878461838, 0.030018039047718048, 0.02221991866827011, 0.0020618364214897156, -0.04948979616165161, -0.060998544096946716, 0.08147154748439789, 0.0784224271774292, -0.08127201348543167, 0.05765509605407715, 0.052696406841278076, 0.018822312355041504, -0.002784810960292816, 0.025562778115272522, 0.05291737616062164, -0.05219833552837372, 0.021996542811393738, -0.078501857817173, 0.031230568885803223, -0.05142993479967117, -0.04856828600168228, 0.04715508222579956, -0.042355816811323166, -0.08235172927379608, -0.04486286640167236, 0.06310257315635681, 0.04539194703102112, 0.012037217617034912, -0.055650487542152405, 0.015782877802848816, -0.015089847147464752, 0.037333764135837555, -0.0007213428616523743, 0.03226068615913391, 0.04304790496826172, -0.05112815275788307, 0.009017132222652435, 0.05384059250354767, 0.061341702938079834, 0.06128229200839996, -0.02763555943965912, -0.024204816669225693, -0.06269389390945435, -0.03776373341679573, 0.021348394453525543, -0.0033859983086586, -0.04574662819504738, 0.06886379420757294, 0.07121364772319794, -0.048558659851551056, 0.008449040353298187, -0.053990546613931656, -0.01940387487411499, -0.034110307693481445, 0.05635495483875275, -0.029379822313785553, -0.07830337435007095, 0.027671560645103455, 0.016275979578495026, -0.05979223549365997, 0.05803999304771423, -0.07286082208156586, -0.07410144805908203, -0.060849614441394806, 0.01320996880531311, -0.06585760414600372, 0.03627098351716995], [0.0632018893957138, -0.0056711286306381226, 0.0347289964556694, -0.019279129803180695, -0.07001219689846039, -0.029684867709875107, -0.006152734160423279, 0.03708513826131821, -0.04120325669646263, 0.008610501885414124, 0.06654559075832367, 0.0044757649302482605, 0.05962349474430084, 0.06473615765571594, -0.07931402325630188, -0.05322206765413284, -0.0345940962433815, -0.01716136932373047, 0.07900464534759521, 0.08020967245101929, 0.0614069402217865, 0.06909771263599396, 0.03529217839241028, 0.023182086646556854, -0.024352937936782837, -0.06027372553944588, 0.034632906317710876, -0.0716647133231163, 0.051998481154441833, -0.007754497230052948, 0.028228849172592163, 0.08203686773777008, 0.04850955307483673, -0.06393808871507645, -0.08024392277002335, -0.03523806482553482, -0.07195227593183517, 0.06012457609176636, 0.054929524660110474, 0.0005943328142166138, 0.04185042530298233, 0.05298429727554321, -0.05815834179520607, -0.01478017121553421, -0.034904126077890396, 0.07356902956962585, 0.030369848012924194, -0.06512223929166794, -0.066896952688694, 0.00887317955493927, 0.036361560225486755, -0.010221943259239197, -0.004576548933982849, -0.013380385935306549, -0.006699472665786743, 0.015545092523097992, 0.0018249750137329102, 0.07173450291156769, -0.005675174295902252, -0.06027085706591606, 0.027689047157764435, -0.0800187885761261, 0.028296850621700287, -0.007833532989025116, -0.06251712143421173, 0.023922838270664215, 0.07924537360668182, -0.00296928733587265, -0.057689033448696136, 0.06234829127788544, 0.05988320708274841, 0.02020733803510666, 0.06635333597660065, -0.07857917249202728, -0.023018762469291687, -0.036504749208688736, -0.05532040074467659, 0.06310267746448517, 0.04188869148492813, -0.05028228089213371, 0.043058156967163086, 0.0389106422662735, 0.0010804161429405212, -0.036248829215765, 0.016996711492538452, -0.02854110300540924, 0.035849541425704956, 0.00029133260250091553, -0.05521407723426819, 0.07991531491279602, -0.05179743841290474, 0.03249529004096985, 0.022602684795856476, -0.0765717625617981, 0.08067888021469116, 0.039752207696437836, 0.0185108482837677, -0.018651992082595825, 0.01742606610059738, 0.011854089796543121], [0.03288310766220093, -0.0033811256289482117, 0.012119710445404053, -0.01592075079679489, -0.055972129106521606, 0.060275256633758545, 0.024499766528606415, 0.038244374096393585, 0.023469865322113037, -0.04975339397788048, 0.0035928115248680115, 0.015355758368968964, -0.0073026493191719055, -0.054112426936626434, -0.00878472626209259, -0.07675252854824066, 0.025562427937984467, -0.0628959983587265, -0.006163068115711212, -0.019240885972976685, 0.0006095767021179199, 0.06772500276565552, -0.02649823948740959, 0.06143449246883392, -0.031559478491544724, 0.044610291719436646, 0.01642090082168579, 0.0072126686573028564, -0.031236931681632996, 0.043416768312454224, -0.04870644956827164, 0.03986611217260361, 0.0006944313645362854, 0.01732732355594635, -0.02141498029232025, -0.027383334934711456, 0.03490892052650452, 0.04196668416261673, 0.06716562807559967, -0.024835195392370224, 0.07996253669261932, -0.07380422204732895, -0.06661559641361237, -0.0014564841985702515, -0.07446745783090591, 0.04486595094203949, -0.057840608060359955, -0.06664403527975082, 0.06206981837749481, -0.008740432560443878, -0.010807260870933533, 0.038867779076099396, 0.0693160742521286, 0.08104486763477325, 0.0271109938621521, -0.0630805715918541, -0.04249140992760658, -0.0119737908244133, -0.006346449255943298, -0.05538023263216019, -0.0708853155374527, 0.049755021929740906, -0.08088547736406326, 0.02360209822654724, -0.079132080078125, 0.011664293706417084, -0.008472084999084473, 0.06198033690452576, -0.04537183418869972, 0.04324956238269806, -0.020743414759635925, -0.006804205477237701, -0.03613748028874397, 0.05262966454029083, 0.024791821837425232, 0.04968181252479553, 0.010251112282276154, -0.03774222359061241, -0.047385334968566895, 0.062044307589530945, -0.01824425905942917, -0.0392339713871479, 0.0816819816827774, -0.07414208352565765, -0.07735224068164825, -0.021510224789381027, 0.03811085224151611, -0.060319747775793076, 0.07819394767284393, 0.0702066719532013, -0.04056178033351898, -0.02996724098920822, 0.0816093385219574, 0.050902366638183594, -0.0236014686524868, -0.042965471744537354, 0.06842905282974243, 0.04478625953197479, -0.02165679633617401, -0.04919188469648361], [-0.033039238303899765, 0.002840571105480194, 0.0035035982728004456, 0.02200210839509964, -0.013651549816131592, -0.08105996251106262, 0.05392220616340637, 0.02176310122013092, -0.014104455709457397, -0.04375879839062691, 0.06166006624698639, 0.043831393122673035, 0.06653563678264618, 0.03958600014448166, -0.03512215614318848, 0.027447998523712158, 0.052096977829933167, 0.026102684438228607, 0.022073403000831604, -0.0010059922933578491, 0.061037614941596985, -0.02320990338921547, -0.07610243558883667, -0.07280920445919037, 0.04842114448547363, -0.03489422798156738, -0.032008495181798935, 0.000718042254447937, -0.046876680105924606, 0.021437078714370728, -0.004149608314037323, 0.05299004912376404, 0.04071970283985138, -0.03690134361386299, 0.06254397332668304, -0.024395953863859177, -0.043447885662317276, 0.031287312507629395, -0.0540727898478508, -0.04512685909867287, -0.007965907454490662, 0.014918997883796692, 0.06631563603878021, -0.03894617408514023, 0.03043435513973236, -0.07545614242553711, 0.07880067825317383, -0.005764074623584747, 0.005438230931758881, -0.07866361737251282, 0.005048312246799469, -0.04397154599428177, -0.02339281141757965, -0.05985347926616669, -0.04745958372950554, 0.02199699729681015, -0.052470557391643524, 0.059246912598609924, 0.06928648054599762, 0.0024059489369392395, -0.03222750872373581, -0.0377843976020813, -0.062444381415843964, -0.03445105999708176, -0.022971641272306442, 0.03256348520517349, -0.06834013760089874, 0.023584991693496704, 0.03177449852228165, -0.0023240000009536743, -0.01260673999786377, -0.017646275460720062, 0.035436682403087616, 0.013830721378326416, 0.048628777265548706, -0.025790531188249588, 0.04667395353317261, -0.030328363180160522, 0.031936369836330414, -0.038766562938690186, -0.05418969690799713, 0.0473795086145401, 0.05388469994068146, -0.06300829350948334, -0.013005480170249939, -0.048992790281772614, 0.07770226895809174, 0.06265980005264282, -0.015448689460754395, 0.036155134439468384, -0.03260970488190651, 0.03410716354846954, -0.01840195059776306, 0.023270949721336365, -0.06584994494915009, -0.0782257542014122, 0.08017177879810333, -0.06223036348819733, 0.037133537232875824, 0.023201458156108856], [0.035448506474494934, 0.04066692292690277, -0.0025056377053260803, 0.042371220886707306, 0.025671422481536865, 0.06325148046016693, 0.050256192684173584, -0.0205603688955307, 0.0034380704164505005, -0.03777777776122093, 0.017017528414726257, -0.07806586474180222, 0.00045430660247802734, 0.030491061508655548, 0.01725749671459198, -0.016568511724472046, 0.07413218915462494, -0.05885595083236694, -0.011540092527866364, -0.051668036729097366, -0.04297315329313278, -0.02306775003671646, 0.057833269238471985, -0.004487022757530212, -0.001653321087360382, 0.0751270204782486, 0.08012306690216064, -0.014106929302215576, -0.044458452612161636, -0.006898760795593262, -0.07054294645786285, -0.04338442161679268, -0.05205663666129112, 0.051479220390319824, -0.03551751375198364, 0.04288385808467865, 0.06168776750564575, 0.06599362194538116, -0.05916541814804077, -0.061359308660030365, -0.041053835302591324, 0.061959296464920044, -0.029078416526317596, -0.00781947374343872, -0.007880814373493195, 0.07696540653705597, 0.05093403160572052, 0.07685303688049316, -0.06224037706851959, 0.011612728238105774, -0.06299573928117752, -0.063027024269104, -0.008052900433540344, -0.06514903157949448, 0.07829199731349945, 0.046499744057655334, 0.07338619232177734, 0.028451532125473022, 0.015382848680019379, 0.06620429456233978, -0.039484310895204544, -0.0626654177904129, 0.035878829658031464, -0.04113920032978058, -0.061543356627225876, -0.08067300915718079, 0.04614938795566559, 0.04397188127040863, -0.04347165301442146, 0.004893183708190918, 0.05710621178150177, -0.046825945377349854, -0.03348561003804207, 0.024189338088035583, -0.0740395113825798, 0.07223381102085114, -0.011787407100200653, -0.015936091542243958, -0.07525581121444702, 0.07014843821525574, 0.06362055242061615, 0.008011318743228912, 0.051486581563949585, -0.02503986656665802, -0.04171998053789139, -0.04577479511499405, -0.0452125184237957, -0.01882871240377426, 0.000585608184337616, -0.046031221747398376, -0.04698925092816353, -0.06304016709327698, 0.03823809325695038, -0.0018799751996994019, -0.053724393248558044, 0.07942502200603485, 0.00825672596693039, 0.05770017206668854, 0.05867297947406769, 0.01148270070552826], [-0.007299579679965973, 0.05906246602535248, 0.06078977882862091, -0.06468185782432556, 0.046661779284477234, 0.032197847962379456, -0.07011659443378448, -0.01456422358751297, 0.02389388531446457, 0.003079913556575775, 0.07399916648864746, 0.04605622589588165, 0.05850072205066681, 0.03161074221134186, 0.004770748317241669, -0.02296445518732071, 0.054710641503334045, -0.03442022204399109, -0.02119581401348114, -0.056264542043209076, -0.016704492270946503, -0.041871342808008194, -0.023281104862689972, 0.0747399777173996, -0.06264740228652954, -0.008089572191238403, -0.0209365151822567, 0.002161934971809387, -0.002496577799320221, -0.07665088027715683, 0.008621223270893097, -0.07956187427043915, 0.00581958144903183, -0.026329196989536285, 0.05848550796508789, 0.026764921844005585, -0.055139850825071335, 0.07514990866184235, -0.07952570915222168, -0.03594459220767021, -0.0048854053020477295, 0.05813562870025635, -0.008430242538452148, 0.039718225598335266, -0.04053720831871033, -0.00810355693101883, 0.07236792147159576, -0.022445958107709885, 0.07841168344020844, 0.052020713686943054, -0.07154892385005951, -0.012113332748413086, -0.060176026076078415, 0.08149710297584534, 0.05584824085235596, 0.0738198310136795, 0.00876530259847641, 0.07991692423820496, -0.06777998059988022, -0.06889510899782181, -0.05929294973611832, -0.05108725652098656, -0.03960015997290611, 0.04698294401168823, -0.04013601690530777, 0.08167976140975952, 0.08063623309135437, 0.013607114553451538, 0.023788757622241974, -0.08107840269804001, 0.0011547207832336426, -0.028134785592556, 0.008269175887107849, 0.026774995028972626, -0.038855839520692825, -0.06744054704904556, -0.026613183319568634, 0.025683581829071045, -0.07035098969936371, -0.07719424366950989, 0.08087840676307678, 0.040829166769981384, 0.06004232168197632, -0.0531250536441803, 0.06252627074718475, 0.06249004602432251, 0.06186339259147644, -0.05275886505842209, -0.011545337736606598, 0.074239581823349, 0.027485258877277374, -0.00840742141008377, -0.02153133973479271, 0.06559175252914429, 0.012166209518909454, -0.017397746443748474, 0.01569439470767975, -0.04058142378926277, -0.020552415400743484, 0.03619852662086487], [0.0632685124874115, 0.02658684551715851, -0.004941694438457489, 0.05278982222080231, -0.07193709164857864, 0.017329014837741852, -0.006490796804428101, 0.0419318825006485, -0.007431991398334503, 0.02383265644311905, -0.018674328923225403, -0.04664592444896698, 0.02597653865814209, -0.04412536323070526, -0.02100658044219017, 0.04245450347661972, -0.03139683976769447, 0.06696465611457825, 0.01995142549276352, 0.05221104621887207, -0.05068410187959671, -0.022221192717552185, -0.011576391756534576, 0.0482487827539444, -0.04856310039758682, 0.011407367885112762, 0.06427502632141113, 0.0638069361448288, -0.06495532393455505, 0.029654286801815033, 0.07240287959575653, 0.03526650369167328, -0.049259886145591736, 0.04321068525314331, 0.05120310187339783, -0.03571672365069389, 0.07914960384368896, 0.016165979206562042, 0.0006544739007949829, 0.011255733668804169, -0.050410643219947815, -0.02238897606730461, -0.048074088990688324, 0.03814135491847992, 0.05446849763393402, -0.06999446451663971, 0.004712745547294617, -0.0706692710518837, -0.01932874321937561, 0.05315135419368744, 0.07356283068656921, 0.008540928363800049, 0.03117901086807251, -0.053848810493946075, 0.0374256893992424, 0.03923600912094116, -0.050854478031396866, -0.0432564914226532, -0.05056575685739517, -0.075801320374012, 0.006907328963279724, 0.024444296956062317, 0.017598561942577362, 0.04084368795156479, 0.010355494916439056, 0.06346002221107483, -0.013824515044689178, -0.04633332043886185, -0.06586173176765442, 0.014766201376914978, -0.03309651464223862, 0.06928177177906036, -0.06145353242754936, -0.055032625794410706, 0.0659313052892685, 0.040681302547454834, 0.025922603905200958, -0.0656646192073822, -0.05665086209774017, -0.008975863456726074, 0.011332668364048004, -0.05276106297969818, -0.002480156719684601, 0.04254165291786194, -0.031138192862272263, -0.05054672434926033, -0.017186395823955536, 0.022666916251182556, 0.05264030396938324, 0.030782923102378845, 0.01845264434814453, 0.03717663139104843, 0.06011274456977844, -0.04413502663373947, -0.024797361344099045, 0.06891968846321106, 0.004007786512374878, -0.02664724364876747, 0.02770964801311493, 0.04156266897916794], [-0.05699208751320839, -0.06258264183998108, -0.022666875272989273, 0.0063915252685546875, 0.07899865508079529, 0.042596593499183655, 0.04049961268901825, 0.02148064225912094, -0.06987171620130539, -0.06222863495349884, -0.0666937306523323, -0.07597856968641281, -0.030820615589618683, 0.0798431932926178, 0.025754466652870178, -0.060380205512046814, 0.02568880468606949, 0.03358103334903717, -0.0280505008995533, -0.06566528975963593, 0.0798799991607666, 0.011586152017116547, 0.015306122601032257, 0.03554125875234604, 0.006270132958889008, -0.06494112312793732, 0.0782071053981781, -0.06624375283718109, -0.011935137212276459, -0.015106305480003357, 0.024787932634353638, 0.018400415778160095, -0.05700073018670082, -0.07857677340507507, -0.04031310975551605, -0.03035266324877739, 0.0654832273721695, 0.06460770964622498, -0.07845908403396606, -0.017280854284763336, 0.010636746883392334, -0.026078857481479645, 0.04449990391731262, -0.0671936422586441, 0.0753810703754425, 0.04682578146457672, 0.043385833501815796, -0.022817391902208328, 0.05233043432235718, 0.0514792799949646, 0.06865265965461731, 0.039582185447216034, -0.003694474697113037, -0.04486335813999176, 0.05307072401046753, 0.0009944066405296326, -0.012965366244316101, -0.013622477650642395, -0.0007748827338218689, 0.013920843601226807, 0.04084767401218414, 0.06351831555366516, 0.03417601436376572, -0.05662411078810692, -0.05066310241818428, 0.015610165894031525, 0.003589548170566559, 0.029652297496795654, -0.0737292617559433, -0.08056275546550751, -0.017035678029060364, -0.034898608922958374, -0.038393933326005936, -0.06241065636277199, 0.06319715082645416, -0.025652073323726654, -0.06019725650548935, -0.08001937717199326, 0.07666826248168945, 0.0357925221323967, -0.05285874754190445, -0.02045021578669548, 0.051259756088256836, -0.05675734579563141, -0.035255055874586105, 0.012269601225852966, 0.002368710935115814, 0.038162961602211, 0.05554240942001343, -0.03180824592709541, -0.023635409772396088, -0.0680481344461441, 0.01574094593524933, 0.07503664493560791, 0.023549102246761322, 0.04550178349018097, -0.0508359931409359, -0.048524364829063416, -0.029023613780736923, 0.055061981081962585], [-0.06467635929584503, 0.030029550194740295, 0.023598402738571167, 0.03890959918498993, -0.044796574860811234, -0.006250746548175812, 0.06381301581859589, 0.026865333318710327, -0.021511323750019073, 0.0665004700422287, 0.07699288427829742, 0.07751855254173279, -0.01620090752840042, -0.02491183951497078, -0.027317747473716736, 0.020597554743289948, 0.0007958188652992249, 0.0531550794839859, -0.013863660395145416, -0.03783389553427696, -0.030615966767072678, 0.015423819422721863, -0.024074941873550415, -0.043759506195783615, -0.03411844000220299, 0.01701246201992035, 0.015375152230262756, 0.012185275554656982, 0.03199097514152527, -0.07310596108436584, 0.02703450620174408, 0.08049044013023376, -0.05145173519849777, -0.044242724776268005, -0.03157318755984306, 0.04032014310359955, 0.01672223210334778, -0.06339942663908005, 0.035087861120700836, -0.03182116895914078, 0.02877219021320343, -0.059644684195518494, -0.04210752248764038, -0.026187460869550705, 0.05721701681613922, -0.014162719249725342, 0.019535794854164124, 0.05712781846523285, -0.0409725196659565, 0.08051182329654694, -0.06232106685638428, 0.006665848195552826, -0.011676371097564697, -0.03261903300881386, -0.010550737380981445, 0.06296278536319733, -0.06480380147695541, -0.07488337904214859, -0.04439811408519745, 0.03582905977964401, -0.0781775712966919, -0.02163400873541832, 0.035661451518535614, -0.007450945675373077, 0.042438410222530365, -0.019033148884773254, -0.06436491757631302, 0.04631401598453522, -0.07722863554954529, 0.050761476159095764, -0.05339454486966133, 0.06724528968334198, -0.04337332397699356, -0.04621480032801628, -0.06451904773712158, -0.03073110803961754, -0.02633018046617508, -0.017682023346424103, -0.07999959588050842, 0.08081035315990448, 0.02733755111694336, -0.00014270097017288208, -0.01924218237400055, -0.039440449327230453, -0.07394876331090927, -0.02721802517771721, -0.0170866921544075, -0.052997320890426636, 0.0035142824053764343, -0.041165128350257874, 0.029142960906028748, 0.08123987913131714, -0.019369736313819885, 0.0801372230052948, -0.026852387934923172, -0.001404792070388794, -0.00808621197938919, 0.06487168371677399, -0.0037602409720420837, 0.030370965600013733], [-0.07188013195991516, 0.00475621223449707, -0.016935542225837708, -0.05155501514673233, 0.0041962191462516785, 0.05947834253311157, -0.03871592506766319, -0.08150196820497513, -0.02448652684688568, -0.07142745703458786, -0.025481481105089188, 0.07529693841934204, -0.03111198917031288, 0.0426950603723526, 0.004912666976451874, -0.010794825851917267, 0.037332020699977875, -0.029553402215242386, -0.033904459327459335, -0.06351065635681152, -0.07786019146442413, 0.0074971020221710205, -0.02475106716156006, -0.057188570499420166, -0.015865415334701538, 0.020675018429756165, -0.062042247503995895, 0.004381053149700165, -0.04944823682308197, -0.029816526919603348, 0.007639944553375244, -0.05403976887464523, -0.04484528675675392, -0.06689804792404175, -0.04765309765934944, -0.05850726366043091, -0.02521994337439537, 0.0566757470369339, 0.06568470597267151, -0.003410749137401581, 0.019529491662979126, 0.08232203125953674, -0.04190375283360481, 0.009181991219520569, -0.007784172892570496, 0.07328730821609497, -0.05841284617781639, -0.0532490536570549, 0.021635226905345917, 0.052889883518218994, -0.05760739743709564, 0.07542230188846588, 0.07696877419948578, 0.0804184079170227, -0.0038103684782981873, -0.06492234021425247, -0.061377398669719696, -0.07065119594335556, 0.046341732144355774, 0.028833769261837006, 0.04350639879703522, -0.06494903564453125, -0.07440593838691711, 0.031179577112197876, -0.05856955051422119, 0.04339200258255005, -0.06326037645339966, 0.01319906860589981, -0.07152444869279861, -0.0068170130252838135, -0.06231360509991646, 0.06480871140956879, -0.003219097852706909, 0.05981417000293732, 0.08062386512756348, 0.03274407982826233, -0.006058529019355774, 0.04669630527496338, -0.03417389094829559, 0.054358601570129395, -0.058415673673152924, -0.008285380899906158, 0.0661700963973999, -0.007668092846870422, -0.053850263357162476, 0.07678167521953583, 0.07197842001914978, 0.00033739209175109863, -0.019927360117435455, 0.06433086097240448, -0.01214754581451416, 0.030095428228378296, -0.04161149635910988, 0.04657690227031708, 0.04796721041202545, 0.004811465740203857, 0.022296302020549774, 0.07564650475978851, -0.052782513201236725, 0.07828621566295624], [-0.027259357273578644, 0.0962495505809784, -0.06402868777513504, 0.0806657150387764, 0.10909716784954071, -0.11675407737493515, 0.12767422199249268, -0.06332585960626602, 0.11124919354915619, 0.046996429562568665, -0.09014778584241867, 0.05086394399404526, -0.02904665470123291, 0.005265105981379747, 0.06650236994028091, -0.07538185268640518, 0.0072684455662965775, 0.0017279806779697537, 0.049578458070755005, 0.0369657538831234, -0.006895802449434996, 0.02436290867626667, 0.05817164480686188, -0.04877715930342674, 0.09197018295526505, 0.07324451953172684, -0.011421458795666695, -0.008908122777938843, -0.022208210080862045, 0.027247408404946327, 0.0723063051700592, 0.039584510028362274, 0.021175861358642578, 0.014665961265563965, 0.02496764063835144, 0.010637611150741577, -0.0737716555595398, -0.0701601430773735, 0.08516298979520798, -0.06448374688625336, -0.08598722517490387, 0.026875000447034836, 0.12460193037986755, -0.09143194556236267, -0.009848391637206078, -0.11376197636127472, 0.10485706478357315, 0.07189522683620453, 0.013905668631196022, 0.04115181416273117, 0.06943611055612564, -0.008006662130355835, 0.10427038371562958, -0.09982780367136002, -0.006540043745189905, -0.02513723447918892, -0.030153265222907066, -0.10515037178993225, -0.04536382108926773, -0.04980860650539398, -0.04461951553821564, -0.000728052866179496, -0.050319187343120575, 0.02013523131608963, -0.008419223129749298, 0.04574848711490631, 0.07032814621925354, -0.0093848193064332, 0.02653530426323414, -0.028944868594408035, 0.0518084317445755, -0.036474090069532394, -0.07501440495252609, -0.036251697689294815, 0.09754150360822678, -0.02221786230802536, 0.11508020013570786, -0.07444720715284348, 0.015800680965185165, 0.005372503772377968, 0.07596755027770996, 0.03854641318321228, 0.08332081139087677, 0.08419100195169449, 0.10039480030536652, 0.10041211545467377, 0.028758417814970016, -0.05912836268544197, -0.0652797594666481, -0.03054872900247574, -0.09101716428995132, -0.0014397894265130162, 0.04582546651363373, -0.02318570949137211, -0.05645483732223511, -0.08218248933553696, 0.08097235858440399, -0.005655315238982439, 0.057066649198532104, 0.08120523393154144], [-0.04329357296228409, 0.09023420512676239, -0.04936861991882324, 0.05760158598423004, 0.08144897222518921, -0.12246241420507431, 0.12571696937084198, -0.1347692310810089, 0.04451942816376686, 0.041857458651065826, -0.07159141451120377, 0.01756538450717926, -0.012644961476325989, 0.032916516065597534, 0.1781919151544571, -0.12042108178138733, -0.0516793392598629, 0.0716119110584259, 0.07723953574895859, -0.034451667219400406, 0.04893634095788002, -0.01386628020554781, 0.068348228931427, 0.05113629996776581, 0.09476050734519958, -0.02904709242284298, 0.052607085555791855, 0.029956653714179993, -0.06293235719203949, -0.03410948067903519, -0.0574759915471077, 0.04311569407582283, 0.13122281432151794, -0.1323218047618866, 0.08020836859941483, -0.05611042678356171, -0.05999388545751572, -0.02973363734781742, 0.036520615220069885, 0.051882192492485046, -0.1222565621137619, -0.026321593672037125, 0.04628245159983635, -0.06816177815198898, -0.14292395114898682, -0.11838504672050476, 0.0343056358397007, 0.013269077055156231, 0.04956275224685669, 0.06727734208106995, 0.14584968984127045, -0.05673123896121979, 0.1033148393034935, -0.0032402852084487677, -0.053042132407426834, 0.08579384535551071, -0.009619588032364845, -0.02074408158659935, -0.051764167845249176, 0.09294725209474564, 0.10373445600271225, 0.04680371657013893, -0.04992463439702988, -0.03132964298129082, 0.012334486469626427, 0.05509163439273834, -0.04987996816635132, -0.03469585254788399, 0.08259061723947525, 0.07180434465408325, 0.047025397419929504, 0.09853149950504303, -0.07472675293684006, 0.029851216822862625, 0.12577243149280548, -0.06379751116037369, -0.02871273085474968, -0.07012056559324265, -0.02205733023583889, -0.022317666560411453, -0.016662023961544037, -0.07369536906480789, 0.05519544333219528, 0.019874688237905502, 0.08129621297121048, 0.11073914170265198, -0.05919096618890762, -0.03825904801487923, -0.14128582179546356, 0.006684876978397369, -0.17137986421585083, 0.001696747844107449, -0.04050961136817932, 0.018299169838428497, 0.05723826587200165, 0.06665945053100586, 0.03872884809970856, 0.06344296038150787, 0.045731689780950546, 0.03286401182413101], [-0.06423869729042053, -0.09403754025697708, -0.0765647366642952, 0.16314320266246796, 0.06065203249454498, -0.050375796854496, -0.010320591740310192, -0.11134975403547287, -0.03203888237476349, 0.0991954505443573, -0.07457393407821655, -0.09207034856081009, -0.0528273768723011, 0.14667144417762756, 0.13230815529823303, 0.13228046894073486, 0.049040064215660095, 0.054099082946777344, 0.0018152446718886495, 0.03180001676082611, -0.16359741985797882, 0.153748020529747, -0.10767359286546707, -0.03717220947146416, 0.11657429486513138, 0.07972603291273117, -0.02930328994989395, -0.006056703627109528, -0.0065473709255456924, 0.022003626450896263, 0.039650268852710724, -0.04313734546303749, -0.05518636479973793, -0.07294734567403793, -0.058008454740047455, -0.017441406846046448, 0.007819704711437225, -0.04108352214097977, -0.020766397938132286, 0.06230250000953674, -0.004660111851990223, 0.08039859682321548, -0.0656144917011261, -0.06433288007974625, 0.04781542718410492, 0.033850088715553284, 0.1196516901254654, 0.06964650750160217, 0.0651165321469307, 0.006836652755737305, 0.11308589577674866, 0.07776565849781036, 0.05084970220923424, 0.04134718328714371, 0.08140168339014053, 0.0017644762992858887, 0.08475971966981888, -0.0692102462053299, 0.05348934233188629, 0.017983876168727875, 0.08960942178964615, -0.011985148303210735, -0.08013109862804413, -0.06261195242404938, 0.10560121387243271, -0.010060898959636688, -0.013846084475517273, -0.06358485668897629, -0.015033137053251266, 0.07185989618301392, -0.058022890239953995, 0.03093639947474003, 0.10851655900478363, 0.03250827267765999, -0.09970462322235107, 0.05752870813012123, -0.012336250394582748, 0.034864842891693115, 0.07956749200820923, 0.016482781618833542, 0.004253707826137543, -0.012397312559187412, 0.055481866002082825, -0.041987136006355286, 0.06929484009742737, 0.1314672976732254, 0.03410046547651291, 0.05143626034259796, -0.13299338519573212, 0.07080930471420288, -0.057912662625312805, 0.03524542599916458, -0.041466813534498215, 0.1082904115319252, 0.055257901549339294, -0.009335003793239594, 0.028933085501194, 0.011572920717298985, -0.013456583023071289, -0.02483265846967697], [0.001070752739906311, 0.02859126590192318, -0.05425999313592911, 0.011024998500943184, 0.06893199682235718, -0.056953176856040955, -0.008747685700654984, 0.04603661224246025, -0.06518448889255524, 0.07962542772293091, 0.054945092648267746, 0.026978211477398872, 0.007128104567527771, 0.035951994359493256, -0.045227546244859695, -0.061643343418836594, -0.005938127636909485, 0.03730536624789238, -0.05726758390665054, -0.07505065202713013, 0.0576518215239048, -0.06300078332424164, -0.09125473350286484, -0.01613805443048477, -0.0017406581901013851, 0.025013092905282974, 0.07451742142438889, -0.033344853669404984, -0.0529354065656662, -0.059045497328042984, 0.07314455509185791, -0.0481351837515831, -0.08639843761920929, 0.042618438601493835, 0.0005094185471534729, -0.06842915713787079, -0.0021186843514442444, 0.03463785722851753, 0.024989398196339607, 0.07221521437168121, 0.08256988227367401, 0.05430249124765396, 0.0033287692349404097, 0.07789371907711029, -0.06885656714439392, 0.0005930960178375244, -0.006893871817737818, -0.02350468747317791, 0.03517557680606842, -0.021962858736515045, -0.07309950143098831, 0.021785572171211243, -0.01525212824344635, -0.009425068274140358, 0.06238968297839165, 0.030260950326919556, -0.06150777265429497, 0.007191102020442486, -0.04668676108121872, -0.014269642531871796, -0.009344588033854961, 0.05170091241598129, 0.0770711898803711, 0.004966743290424347, 0.0036880921106785536, -0.005493462085723877, 0.03336261212825775, 0.04030843824148178, 0.03215701878070831, -0.012075439095497131, 0.07084959745407104, 0.0835498571395874, -0.06458999961614609, -0.059498127549886703, -0.03855152800679207, -0.04979241266846657, 0.07755444943904877, -0.07212989777326584, -0.07293447852134705, 0.034482575953006744, -0.06679730117321014, 0.028582345694303513, -0.049169767647981644, 0.037542931735515594, -0.00811614841222763, 0.011725752614438534, -0.028093475848436356, -0.06033559888601303, 0.041421305388212204, 0.006157368421554565, -0.027715453878045082, -0.00023321062326431274, 0.020518667995929718, 0.03902997449040413, 0.07456362247467041, -0.01863972097635269, 0.045809365808963776, 0.08740267157554626, 0.04318159818649292, -0.060853347182273865], [-0.012474097311496735, 0.04415024816989899, -0.026281170547008514, 0.0027344077825546265, -0.07764825224876404, 0.03606965392827988, -0.04803331196308136, 0.0678211897611618, -0.02652886137366295, -0.03518550097942352, 0.05863560736179352, 0.009217485785484314, -0.0413983017206192, 0.04341322183609009, 0.028336547315120697, -0.0049775466322898865, 0.05004967749118805, -0.04973322153091431, 0.062443748116493225, -0.04924299567937851, -0.021246057003736496, -0.024692848324775696, -0.0086282417178154, -0.0409441739320755, 0.06981495022773743, 0.02868015319108963, 0.04626663029193878, -0.06548483669757843, -0.01226518303155899, -0.0306619293987751, -0.06182675436139107, 0.0034682750701904297, 0.023099079728126526, -0.025977227836847305, -0.07925963401794434, 0.05098700523376465, 0.01102493703365326, 0.07280443608760834, 0.07683360576629639, -0.05888863652944565, -0.010682791471481323, -0.02976313978433609, 0.06709417700767517, 0.015580721199512482, -0.010136283934116364, 0.043668970465660095, 0.043372392654418945, -0.0388641282916069, -0.06151149421930313, -0.045229487121105194, -0.05439867079257965, -0.016247771680355072, 0.0531998872756958, 0.043201714754104614, 0.0636252760887146, 0.07500961422920227, -0.009012125432491302, 0.04100921005010605, 0.009494930505752563, 0.07592944800853729, -0.0083908811211586, -0.03077123686671257, 0.012876681983470917, -0.03184584155678749, -0.0029517635703086853, 0.02791665494441986, 0.056860193610191345, 0.02991122007369995, 0.002561517059803009, -0.0772266536951065, 0.04007160663604736, 0.03700835257768631, -0.060986973345279694, 0.0685475766658783, -0.061949241906404495, -0.04275147244334221, 0.07166910171508789, 0.003226660192012787, 0.07000599801540375, 0.03123416006565094, 0.03476011008024216, 0.041730329394340515, 0.0567702054977417, 0.05063430964946747, 0.013666987419128418, -0.046271760016679764, -0.026056189090013504, -0.03841172903776169, -0.042452871799468994, -0.05135330930352211, -0.06326296925544739, -0.004704318940639496, 0.03987687826156616, 0.03939574211835861, -0.007515251636505127, 0.075373575091362, -0.06265237182378769, 0.01083279401063919, 0.007667049765586853, -0.0648902878165245], [-0.07244869321584702, 0.04046107828617096, 0.017326675355434418, -0.06084179878234863, 0.07570751011371613, 0.05978068709373474, -0.01050838828086853, 0.0366269052028656, 0.012944608926773071, -0.034885525703430176, 0.06411227583885193, -0.056283339858055115, -0.03876163437962532, -0.005142398178577423, 0.03939977288246155, -0.042054567486047745, -6.405264139175415e-05, -0.0756925418972969, -0.010399334132671356, 0.04023923724889755, -0.04702380299568176, -0.019907109439373016, 0.05681779980659485, 0.0409688875079155, 0.02458002418279648, -0.04107176885008812, 0.011633768677711487, -0.06407877057790756, -0.009517870843410492, 0.02291198819875717, -0.005551628768444061, 0.06273019313812256, 0.06349065899848938, -0.080867700278759, -0.012996718287467957, 0.060451894998550415, -0.04056187719106674, 0.01072152704000473, -0.013201229274272919, -0.0022232607007026672, -0.062462709844112396, 0.03371267020702362, 0.021208442747592926, 0.020408987998962402, -0.022520147264003754, 0.005847282707691193, 0.0129498690366745, -0.019722357392311096, -0.012951090931892395, -0.022298365831375122, 0.02048378437757492, -0.04906684160232544, 0.050135985016822815, -0.02438175305724144, 0.08178173005580902, 0.07262653112411499, -0.04455823823809624, -0.05588841438293457, 0.012777037918567657, -0.03422154113650322, -0.01907942444086075, -0.040312424302101135, -0.07658825814723969, -0.043364088982343674, -0.06671547889709473, -0.06926127523183823, -0.011873461306095123, -0.009142428636550903, 0.04972396790981293, -0.05045171454548836, 0.007449455559253693, 0.03370086848735809, -0.01259562373161316, 0.02168266475200653, 0.05933427810668945, 0.0722769945859909, -0.017292164266109467, 0.008082404732704163, 0.02149488776922226, -0.017519623041152954, 0.07447119057178497, 0.04690353572368622, -0.03156859055161476, -0.0016649290919303894, 0.035831019282341, 0.031027406454086304, -0.04003160074353218, 0.0659077912569046, -0.06953230500221252, -0.07583335041999817, 0.03170217573642731, -0.054246678948402405, 0.04538804292678833, 0.003542602062225342, -0.04618653282523155, 0.06265296041965485, -0.06671813130378723, -0.03494889289140701, 0.0628337562084198, -0.012728303670883179], [-0.04015224054455757, -0.054108500480651855, -0.026565629988908768, -0.018046624958515167, -0.04091184213757515, -0.03407687693834305, 0.012833669781684875, 0.033950403332710266, 0.06592617928981781, -0.05425412580370903, -0.026666708290576935, -0.032611824572086334, -0.00618414580821991, -0.004070602357387543, 0.05597718060016632, 0.07631492614746094, -0.027558699250221252, -0.021126847714185715, 0.00023277848958969116, -0.025339722633361816, -0.0432625412940979, -0.05006391927599907, 0.01664073020219803, -0.07787550985813141, 0.047410279512405396, 0.04488249123096466, 0.06711319088935852, 0.002209879457950592, -0.0448615700006485, 0.05009417235851288, -0.07085349410772324, 0.07741802930831909, 0.038372814655303955, 0.03625374287366867, 0.011819913983345032, -0.056424979120492935, -0.030667897313833237, 0.00010009855031967163, 0.06883014738559723, -0.08133003860712051, 0.030196428298950195, -0.012328803539276123, -0.08041033148765564, -0.02038317546248436, -0.02635500580072403, -0.05544823408126831, 0.024923153221607208, 0.0581551194190979, 0.01871349662542343, -0.013806246221065521, 0.008771196007728577, 0.007378466427326202, 0.02407968044281006, 0.05436989665031433, -0.06296821683645248, -0.06739374250173569, 0.017750732600688934, -0.06287248432636261, -0.014988705515861511, 0.02498602867126465, -0.021132998168468475, 0.06086067855358124, -0.015401095151901245, -0.02113480493426323, -0.04096851125359535, 0.06710726022720337, -0.043162304908037186, 0.04037071764469147, 0.008988119661808014, 0.05958127975463867, 0.057453736662864685, -0.055824968963861465, -0.04770006239414215, 0.06740020215511322, -0.03601962700486183, 0.04702518880367279, -0.06635113060474396, 0.050633400678634644, 0.04838550090789795, 0.012121282517910004, -0.01687987893819809, 0.054724693298339844, 0.05767880380153656, -0.0446142740547657, 0.07039593160152435, 0.01169385015964508, 0.010628834366798401, 0.06839814782142639, 0.009631305932998657, -0.04048829898238182, 0.033947497606277466, 0.05424407124519348, -0.02017609030008316, 0.041625916957855225, -0.04482089355587959, -0.07485643029212952, 0.01416255533695221, -0.038758471608161926, 0.0008618757128715515, -0.07903369516134262], [-0.053696680814027786, -0.020257368683815002, -0.0719231441617012, -0.05029968544840813, -0.07431648671627045, -0.06823483854532242, -0.07128894329071045, 0.0003909990191459656, -0.04129938408732414, -0.01903030276298523, -0.055623285472393036, -0.05578929930925369, 0.08001545071601868, 0.005372568964958191, -0.0061358436942100525, 0.005970649421215057, -0.08231621235609055, 0.05326169729232788, 0.027095317840576172, -0.04890471696853638, -0.051915958523750305, 0.0037825927138328552, 0.016077280044555664, -0.021732870489358902, -0.023055139929056168, -0.014655284583568573, 0.0013006478548049927, 0.02662564069032669, 0.07176481187343597, -0.07010465115308762, -0.04917542636394501, -0.07624295353889465, 0.07665973901748657, -0.06365149468183517, 0.003580905497074127, -0.07285135984420776, -0.03675011917948723, 0.0537993460893631, -0.07311089336872101, -0.06880222260951996, -0.008637197315692902, 0.04053143411874771, -0.0741962343454361, 0.06931662559509277, 0.04641158878803253, -0.027915697544813156, 0.04082372784614563, 0.0009132996201515198, 0.015077665448188782, -0.039815809577703476, 0.028280198574066162, -0.013030759990215302, -0.03987405076622963, 0.06153053045272827, 0.025032438337802887, -0.027076072990894318, -0.009255081415176392, -0.05970555543899536, 0.06011985242366791, 0.04599332809448242, -0.02114550769329071, -0.04485495015978813, -0.05614063888788223, -0.07351027429103851, 0.07066506147384644, -0.0319795235991478, 0.002919532358646393, -0.060980767011642456, -0.009305775165557861, 0.04547418653964996, 0.02449292689561844, -0.020345110446214676, -0.057726919651031494, 0.0028789713978767395, 0.009942926466464996, -0.059340350329875946, -0.019810862839221954, -0.0008893013000488281, 0.05165483057498932, -0.046495839953422546, 0.04223106801509857, -0.04761558026075363, 0.010304145514965057, -0.0749344676733017, -0.0080408975481987, 0.05882944166660309, -0.015447765588760376, -0.05016853287816048, 0.028499305248260498, -0.06210041046142578, 0.027166664600372314, 0.005096361041069031, -0.06519493460655212, 0.05726809799671173, -0.016127564013004303, -0.05362573266029358, 0.0244215726852417, -0.003581911325454712, 0.0558176189661026, 0.04809805750846863], [-0.047938499599695206, -0.03044232726097107, 0.051117777824401855, 0.026705816388130188, 0.07311660051345825, 0.04755963385105133, -0.054109420627355576, 0.03501726686954498, 0.0038512423634529114, -0.04886215180158615, 0.07424964010715485, -0.012438878417015076, 0.05874675512313843, -0.07576882839202881, 0.0646335631608963, 0.029431641101837158, 0.007463477551937103, -0.07070432603359222, 0.03736144304275513, 0.011501163244247437, -0.05042492225766182, -0.024407897144556046, 0.05849912762641907, 0.0008877292275428772, 0.015437059104442596, 0.05705490708351135, -0.04118205979466438, 0.0056861937046051025, -0.03614635765552521, 0.046672284603118896, -0.01310461014509201, -0.0012142583727836609, 0.0730658620595932, -0.06381544470787048, -0.04464629292488098, -0.0035571157932281494, 0.06216725707054138, -0.06816837191581726, 0.022335432469844818, -0.05695883184671402, -0.007440239191055298, 0.03401107341051102, -0.013194143772125244, -0.035895682871341705, 0.05734404921531677, -0.07771800458431244, -0.07113818824291229, 0.05468431115150452, 0.019374415278434753, -0.003497384488582611, 0.0211247056722641, -0.04767095297574997, -0.060927532613277435, 0.07468603551387787, 0.07432860136032104, 0.023332446813583374, -0.06664429605007172, 0.01640581339597702, -0.007841333746910095, -0.026456203311681747, 0.0739615261554718, -0.029399152845144272, -0.012511909008026123, -0.03983166068792343, 0.012594521045684814, -0.06370691955089569, 0.08136074244976044, 0.012619957327842712, 0.027177736163139343, -0.0668344646692276, 0.027488835155963898, 0.07040604948997498, -0.040530119091272354, -0.03822218254208565, -0.07876952737569809, -0.02699100226163864, -0.05141174793243408, 0.08113314211368561, -0.02072819322347641, -0.05048869922757149, -0.0400552861392498, 0.00691734254360199, 0.02155900001525879, 0.0011639147996902466, 0.05598202347755432, -0.012756332755088806, -0.06408455967903137, 0.04925316572189331, -0.031830303370952606, -0.030498642474412918, 0.021593429148197174, 0.030058935284614563, 0.004418015480041504, 0.002371475100517273, -0.056630946695804596, -0.06628861278295517, -0.06472814083099365, -0.001180022954940796, -0.06608735769987106, -0.05362921208143234], [0.029276542365550995, 0.03462165594100952, 0.003839433193206787, -0.031372521072626114, 0.011549010872840881, -0.08158203214406967, 0.06238934397697449, -0.03586329519748688, -0.0013638511300086975, -0.024382364004850388, -0.07901055365800858, -0.03141980245709419, -0.020338628441095352, -0.05457720160484314, -0.03436023369431496, -0.058685049414634705, -0.02612151950597763, 0.016622915863990784, -0.0633484348654747, -0.031245242804288864, 0.030866757035255432, -0.04045636206865311, 0.0042137205600738525, 0.027959831058979034, -0.03215109929442406, -0.052930496633052826, 0.0634598433971405, -0.007464244961738586, -0.041884034872055054, 0.04287503659725189, -0.0031003430485725403, -0.00470665842294693, 0.0007195323705673218, -0.04751163348555565, 0.0150250643491745, -0.05875120311975479, -0.004265688359737396, 0.057304129004478455, -0.03065483644604683, 0.08174534142017365, 0.040115900337696075, 0.062102288007736206, -0.04545861482620239, -0.07852458953857422, -0.016159243881702423, -0.06028759479522705, 0.06392818689346313, -0.08148163557052612, 0.02693495899438858, 0.07926394045352936, 0.04939886927604675, 0.019493915140628815, 0.013425663113594055, -0.03497440740466118, -0.04739727824926376, 0.0698729157447815, -0.043351951986551285, 0.0554591566324234, -0.0678812563419342, 0.05710753798484802, -0.07021307945251465, -0.06359963864088058, -0.056094951927661896, 0.03783585876226425, -0.006165698170661926, -0.05845199152827263, -0.04921058565378189, -0.06960177421569824, -0.0008465349674224854, 0.06545893847942352, -0.04192744195461273, 0.018044911324977875, 0.00888802856206894, 0.0031874552369117737, -0.00728200376033783, 0.02673797309398651, 0.07936805486679077, 0.019076228141784668, -0.014467775821685791, -0.04200677573680878, -0.043728139251470566, 0.044920846819877625, 0.06581446528434753, 0.045286670327186584, -0.0651857852935791, 0.023165494203567505, 0.03509789705276489, 0.03089405596256256, -0.04759935662150383, -0.010711096227169037, -0.043797869235277176, 0.028499580919742584, -0.05123176425695419, 0.05562569200992584, -0.022158514708280563, -0.033138688653707504, -0.024382442235946655, -0.018477611243724823, -0.04804912209510803, -0.053704358637332916], [-0.018955327570438385, 0.003400668501853943, 0.02983098477125168, -0.07749348878860474, 0.07917200028896332, -0.049122802913188934, -0.0634884387254715, 0.07279282808303833, 0.04731336236000061, 0.046084925532341, 0.05568338930606842, 0.06628304719924927, -0.047070570290088654, -0.02433154731988907, 0.05987018346786499, -0.02329697459936142, -0.011811256408691406, -0.08121069520711899, -0.0568280965089798, -0.06544537097215652, -0.044147636741399765, 0.07349927723407745, -0.042534150183200836, -0.02559196949005127, -0.021615996956825256, 0.0009575933218002319, -0.07564818859100342, 0.041206926107406616, -0.03780195489525795, 0.02438236027956009, -0.014750882983207703, -0.031318292021751404, 0.06343108415603638, 0.07573871314525604, -0.04911400377750397, 0.004024878144264221, 0.029327772557735443, 0.04149751365184784, -0.004448756575584412, 0.07325056195259094, -0.058385662734508514, -0.020236507058143616, 0.07966454327106476, -0.06612178683280945, -0.07600288838148117, -0.0030740201473236084, -0.02827339991927147, -0.05670258402824402, -0.07494273781776428, -0.01416381448507309, 0.06154172122478485, -0.01709519326686859, -0.08233778178691864, 0.02937605232000351, 0.04486127197742462, -0.04459758102893829, -0.017302952706813812, 0.06306405365467072, -0.06281876564025879, -0.06601464003324509, 0.006025843322277069, -0.07980502396821976, -0.015446335077285767, -0.04174897447228432, -0.02876492589712143, 0.04721914231777191, -0.05102388933300972, 0.035123370587825775, 0.03432564437389374, 0.01800091564655304, -0.04466656222939491, -0.04320663958787918, -0.058185234665870667, 0.03215942531824112, -0.05985921621322632, -0.011643469333648682, -0.03640017285943031, 0.02235320955514908, -0.027066074311733246, 0.06621819734573364, 0.029835127294063568, 0.053421586751937866, -0.024499762803316116, -0.03855833783745766, -0.05165509134531021, -0.08225736767053604, 0.07036320865154266, -0.07099560648202896, 0.05244725942611694, -0.08224064856767654, 0.04975920915603638, -0.012190565466880798, 0.04790608584880829, 0.036364659667015076, 0.04492112994194031, 0.029694296419620514, -0.05568203330039978, -0.055362001061439514, -0.07425742596387863, 0.035162895917892456], [-0.0815143808722496, 0.06858508288860321, -0.06240548938512802, 0.07129539549350739, 0.06811732053756714, -0.03600683808326721, -0.016709990799427032, -0.06794560700654984, 0.04928252100944519, 0.002312116324901581, -0.07192375510931015, 0.07465535402297974, -0.04526056349277496, 0.05510154366493225, 0.07749150693416595, -0.0037941783666610718, -0.034161120653152466, 0.046264320611953735, -0.06330498307943344, 0.06724843382835388, -0.06108583137392998, 0.028437942266464233, 0.0803396999835968, -0.007436998188495636, 0.0683494359254837, 0.005590319633483887, 0.023459747433662415, -0.06330475211143494, -0.036350734531879425, -0.023985590785741806, -0.04527193680405617, 0.010556429624557495, -0.03649355098605156, -0.06950071454048157, 0.04861380159854889, 0.00242672860622406, 0.05451206862926483, 0.022012099623680115, -0.047678492963314056, 0.06185799837112427, -0.030109863728284836, 0.06385213136672974, 0.07600858807563782, -0.001093931496143341, 0.04462739825248718, -0.019409261643886566, -0.04031652957201004, 0.014537446200847626, 0.07989589869976044, 0.006764352321624756, 0.01751571148633957, -0.08169642835855484, 0.05856256186962128, 0.06954874098300934, 0.025698646903038025, 0.011758200824260712, 0.055671095848083496, -0.07000948488712311, 0.07726635038852692, 0.009643308818340302, 0.04615721106529236, 0.007109798491001129, 0.05021946132183075, 0.055400654673576355, -0.05677001178264618, 0.05404190719127655, -0.06850169599056244, -0.03941401094198227, -0.04410349950194359, -0.07036334276199341, -0.018106572329998016, -0.01308257132768631, 0.014890201389789581, -0.005098871886730194, -0.019874051213264465, 0.07858866453170776, 0.03334614634513855, -0.06240853667259216, -0.023194875568151474, 0.02649325132369995, -0.005794718861579895, 0.004700154066085815, 0.023359671235084534, 0.06560412049293518, 0.04574576020240784, 0.050133079290390015, 0.06779494881629944, 0.08097194135189056, -0.036835599690675735, 0.03622954338788986, -0.0149088054895401, 0.05277791619300842, -0.03835863620042801, -0.06506747752428055, -0.07788798213005066, 0.021542496979236603, -0.021300800144672394, 0.07342389225959778, 0.016916334629058838, -0.06290754675865173], [0.036611661314964294, 0.017867855727672577, -0.06519442796707153, 0.034345559775829315, -0.04199182987213135, 0.012957766652107239, -0.01493041217327118, 0.04334317147731781, 0.03164961189031601, -0.050530754029750824, -0.07937762886285782, 0.03567488491535187, -0.056866299360990524, -0.030545271933078766, 0.06206807494163513, 0.07803958654403687, 0.03306934982538223, -0.025775838643312454, 0.030552305281162262, -0.042629435658454895, -0.013933569192886353, 0.08027809858322144, -0.01581120491027832, -0.07941921055316925, 0.021834731101989746, 0.028822004795074463, -0.0068463608622550964, -0.055796392261981964, -0.07257954776287079, -0.022354349493980408, 0.07897309958934784, -0.007043622434139252, 0.005127705633640289, 0.019558362662792206, -0.07103447616100311, 0.00011983513832092285, 0.049510225653648376, 0.004048153758049011, 0.0111265629529953, 0.01947588473558426, -0.07420476526021957, -0.04406457021832466, -0.008115693926811218, 0.0532345324754715, 0.03019791841506958, 0.06776770949363708, 0.0720280110836029, 0.07622431218624115, 0.04013175517320633, -0.03695761784911156, 0.009434036910533905, -0.035769425332546234, 0.03277204930782318, 0.055139049887657166, 0.053233593702316284, 0.028718098998069763, -0.06286557018756866, 0.012273669242858887, -0.058763615787029266, 0.017999522387981415, -0.02656244859099388, 0.0017635151743888855, -0.03411378338932991, -0.0051018595695495605, -0.050241876393556595, 0.029180124402046204, -0.024544235318899155, 0.06658855080604553, -0.008681349456310272, 0.0698021799325943, 0.07149603962898254, 0.014352187514305115, 0.03807196021080017, 0.08134894073009491, -0.04513375088572502, -0.03589291498064995, 0.017631664872169495, -0.05108955502510071, -0.08004017919301987, -0.07547634094953537, -0.0022893771529197693, -0.05547453463077545, -0.022543523460626602, -0.017223142087459564, -0.05339837446808815, 0.05227994918823242, 0.030485443770885468, 0.024592377245426178, 0.009434610605239868, -0.011527754366397858, -0.05171879380941391, -0.03862755745649338, 0.07534988224506378, -0.0038529708981513977, 0.01737770438194275, -0.05681552365422249, -0.07036479562520981, 5.336850881576538e-05, -0.0442139096558094, 0.07263977825641632], [0.03127260506153107, -0.021802738308906555, -0.02319898083806038, -0.027535993605852127, 0.014384239912033081, -0.07825305312871933, -0.02713168039917946, -0.05368144065141678, 0.007448233664035797, 0.08191543817520142, -0.04900742694735527, -0.04374801740050316, 0.03380371630191803, 0.05462920665740967, -0.005682699382305145, 0.018422946333885193, -0.03053368255496025, -0.04194686934351921, -0.06240733712911606, 0.0025475695729255676, -0.006463669240474701, 0.05434329807758331, -0.04774419590830803, 0.05174653232097626, 0.015923619270324707, -0.070622518658638, 0.05675406754016876, 0.054239824414253235, -0.07261943817138672, 0.004762008786201477, 0.0013451352715492249, -0.06686946749687195, -0.02828216180205345, 0.05349341034889221, -0.04418666660785675, 0.06910048425197601, -0.009185940027236938, -0.01845742017030716, 0.0658259242773056, 0.04995517432689667, 0.006264083087444305, 0.06582914292812347, -0.0014634579420089722, -0.07666488736867905, 0.06821863353252411, 0.020097576081752777, 0.013045348227024078, -0.013233736157417297, -0.06496891379356384, -0.0010357126593589783, -0.009545937180519104, -0.07508506625890732, -0.0821903869509697, 0.06906652450561523, 0.07750865817070007, 0.03504601866006851, 0.032296039164066315, -0.04225898161530495, 0.07958954572677612, 0.015339851379394531, -0.07610596716403961, 0.023164741694927216, 0.07836750149726868, -0.02700129523873329, -0.08120393753051758, -0.03650626167654991, 0.0719059407711029, 0.020383037626743317, 0.07212091982364655, 0.050443291664123535, 0.03433193266391754, -0.054797232151031494, 0.005418039858341217, -0.04986657574772835, -0.04837842285633087, -0.07183375209569931, -0.05405202507972717, 0.05217771232128143, 0.06704306602478027, 0.030283384025096893, 0.06822939217090607, 0.03527214378118515, -0.07221461832523346, 0.0026036128401756287, -0.05067669600248337, -0.03931611403822899, -0.026950165629386902, -0.041712380945682526, -0.05187962204217911, -0.04800695180892944, -0.07906904816627502, -0.0469142384827137, -0.06918039172887802, -0.02000204101204872, 0.058642417192459106, -0.037420447915792465, -0.037033338099718094, -0.025637123733758926, -0.027388285845518112, -0.056361690163612366], [-0.057821065187454224, -0.030578427016735077, -0.06946585327386856, 0.007921747863292694, -0.015731163322925568, -0.03395920246839523, -0.07199867069721222, -0.07792795449495316, -0.0805404856801033, 0.03248489648103714, -0.062385573983192444, 0.029538609087467194, 0.07649372518062592, -0.0717829018831253, 0.014166899025440216, -0.06427843123674393, 0.05876171588897705, -0.08076493442058563, 0.04797804355621338, -0.0384627990424633, -0.05083220452070236, -0.0694441869854927, 0.047431886196136475, -0.08199626207351685, -0.04201687127351761, 0.052857786417007446, -0.07082071155309677, -0.033250823616981506, -0.07979290187358856, 0.02539399266242981, -0.041035354137420654, -0.0663616806268692, -0.028247080743312836, 0.07308638095855713, 0.0012871921062469482, 0.018890075385570526, 0.06427988409996033, -0.07429269701242447, 0.03626570105552673, 0.030078396201133728, -0.0014489814639091492, 0.017091169953346252, 0.005869045853614807, 0.059810757637023926, -0.07775040715932846, 0.058473050594329834, 0.008020512759685516, 0.02453504502773285, -0.02189755067229271, -0.0011557042598724365, -0.028489679098129272, 0.07545129954814911, 0.0776180624961853, -0.0245722234249115, 0.016368769109249115, -0.06470887362957001, -0.016042038798332214, 0.07020765542984009, -0.05708937346935272, -0.08061052858829498, -0.010858394205570221, -0.0054227933287620544, 0.03584650158882141, 0.0622713565826416, 0.039768338203430176, -0.06536030024290085, -0.05679825693368912, 0.05902464687824249, -0.05606696009635925, -0.06950042396783829, -0.003322713077068329, 0.054301485419273376, 0.01148216426372528, 0.07604672014713287, -0.04243827611207962, -0.034338805824518204, 0.06953394412994385, 0.05833791196346283, -0.08146629482507706, -0.015911832451820374, 0.017958156764507294, 0.024088144302368164, 0.06941255927085876, -0.004840955138206482, -0.006511129438877106, 0.05280068516731262, 0.02443736046552658, -0.011651776731014252, -0.06721998751163483, 0.033334799110889435, 0.013071984052658081, 0.030606336891651154, -0.06577948480844498, -0.06486612558364868, 0.06464043259620667, 0.029733091592788696, -0.05129654332995415, 0.05270339548587799, -0.022974688559770584, 0.0014919042587280273], [-0.0817718505859375, 0.01836586743593216, -0.05380335450172424, 0.0637744665145874, 0.045504674315452576, -0.000981949269771576, -0.0041006579995155334, 0.03392453491687775, -0.011577531695365906, -0.0780012235045433, -0.04552895203232765, 7.56978988647461e-05, 0.03165377676486969, -0.01282384991645813, 0.07104575634002686, 0.08148330450057983, -0.0603688508272171, -0.005634889006614685, 0.06808312237262726, 0.050408974289894104, -0.02858121320605278, -0.0036706700921058655, -0.0006085112690925598, -0.02745942771434784, -0.04696986451745033, -0.029326926916837692, 0.04129698872566223, -0.07504668831825256, -0.06175370514392853, -0.0043922290205955505, -0.017769746482372284, -0.060282036662101746, -0.07653330266475677, 0.0353638157248497, 0.033432282507419586, 0.005829699337482452, -0.06572762876749039, -0.040098048746585846, -0.002597324550151825, 0.05454280972480774, 0.016719281673431396, 0.028907805681228638, 0.013368956744670868, -0.048357896506786346, 0.001969069242477417, 0.06519386172294617, -0.03957483917474747, -0.0734623447060585, -0.04152029752731323, 0.008343644440174103, -0.08073867112398148, 0.06734217703342438, -0.04178507626056671, 0.05006268620491028, 0.023902468383312225, 0.013047724962234497, -0.06286822259426117, 0.07075470685958862, -0.027133997529745102, 0.041171908378601074, -0.016353391110897064, -0.00032144784927368164, -0.06886784732341766, 0.0013540759682655334, 0.0485396534204483, 0.005035661160945892, -0.017919518053531647, 0.04950694739818573, 0.07496607303619385, -0.06520278751850128, -0.012900196015834808, -0.062094204127788544, 0.008848190307617188, -0.03377285599708557, -0.07726357877254486, -0.07698308676481247, 0.03738536685705185, 0.07129280269145966, 0.0051714107394218445, -0.019556261599063873, -0.03994609788060188, -0.00031388550996780396, -0.06471884995698929, -0.03920421004295349, -0.05974426865577698, -0.03627346083521843, 0.0384112149477005, -0.04840099439024925, -0.007140934467315674, 0.03138919919729233, -0.04346344247460365, -0.06306084990501404, 0.07298339903354645, 0.07712845504283905, 0.06600745022296906, 0.05623339116573334, -0.06090959906578064, 0.07455460727214813, 0.015034988522529602, 0.03807521611452103], [-0.01884733885526657, -0.04906792193651199, 0.021766282618045807, -0.01224316656589508, 0.03829454630613327, -0.06756885349750519, -0.017863363027572632, -0.0035416781902313232, 0.0658954530954361, 0.07462984323501587, -0.08037275820970535, -0.05095824599266052, -0.0653085857629776, -0.07571490854024887, 0.03817097097635269, 0.04922538995742798, 0.04145463556051254, 0.04745003581047058, 0.00021176040172576904, 0.07690156996250153, -0.019182100892066956, -0.02982000634074211, -0.0016879290342330933, 0.0029024258255958557, 0.037846580147743225, -0.030238304287195206, 0.05567498505115509, -0.07185260951519012, 0.015588246285915375, 0.014213256537914276, 0.0767354965209961, 0.006086170673370361, 0.05857399106025696, -0.006843216717243195, -0.05289728194475174, 0.062442198395729065, -0.007787279784679413, -0.03370063006877899, -0.06808779388666153, 0.05690617859363556, -0.011754490435123444, -0.049465931951999664, 0.036093853414058685, 0.06017732620239258, -0.06423209607601166, 0.009710893034934998, -0.045994020998477936, 0.03739039599895477, -0.02207918092608452, -0.024836450815200806, 0.01596832275390625, 0.0765489935874939, 0.003144480288028717, -0.04914924129843712, -0.0814761370420456, 0.055140167474746704, 0.039597287774086, -0.06931490451097488, 0.04919150471687317, 0.01747749000787735, 0.021114274859428406, 0.02253572642803192, 0.06582772731781006, 0.06536160409450531, -0.018369518220424652, 1.5400350093841553e-05, -3.7729740142822266e-05, -0.04510509595274925, -0.07735124230384827, -0.005671150982379913, -0.007258474826812744, -0.0753263309597969, -0.07453734427690506, -0.0187704935669899, -0.07656922936439514, 0.03226646035909653, 0.07148273289203644, 0.06811070442199707, 0.07243508100509644, 0.012298397719860077, 0.01792411506175995, -0.03148078918457031, 0.07767455279827118, 0.035150930285453796, -0.0004912540316581726, -0.04925191029906273, -0.012390479445457458, -0.050533778965473175, 0.07013671100139618, -0.010379478335380554, -0.037528183311223984, 0.07588215172290802, 0.036076001822948456, 0.06191319227218628, -0.081780806183815, 0.06858804821968079, -0.0014388114213943481, 0.028491370379924774, -0.053559064865112305, 0.034319162368774414], [-0.033186282962560654, 0.08144237101078033, -0.01895536482334137, -0.055199407041072845, 0.08061490952968597, -0.0640808716416359, -0.031675130128860474, 5.272030830383301e-05, -0.022866714745759964, -0.016101926565170288, 0.047156110405921936, -0.006624989211559296, -0.04246031492948532, -0.0804753303527832, 0.052658453583717346, -0.043759096413850784, 0.0524623841047287, 0.05745668709278107, -0.005002610385417938, -0.029488269239664078, 0.037498585879802704, 0.019697017967700958, -0.0003310665488243103, 0.009018391370773315, -0.038853541016578674, 0.020292073488235474, -0.0666334480047226, 0.003279849886894226, 0.07728245854377747, 0.016668841242790222, -0.05280924588441849, -0.020485728979110718, -0.0210084468126297, -0.07458841055631638, -0.07186205685138702, -0.06934293359518051, -0.018942855298519135, 0.049429863691329956, 0.03639848530292511, -0.0739082396030426, 0.025226719677448273, -0.036260850727558136, 0.016150854527950287, -0.023632701486349106, 0.04223146289587021, -0.027020718902349472, 0.07478033006191254, -0.005356207489967346, -0.07946265488862991, 0.022055432200431824, -0.01223108172416687, 0.039580926299095154, -0.004439599812030792, -0.024509839713573456, -0.062222935259342194, 0.06774061918258667, -0.0016694441437721252, 0.06833378970623016, 0.07402366399765015, 0.05768834054470062, -0.07616622745990753, 0.051056474447250366, -0.04675474390387535, 0.004754647612571716, -0.02442987635731697, 0.06406287848949432, -0.07729502767324448, -0.014225102961063385, -0.06812635064125061, -0.011291459202766418, 0.04245780408382416, -0.05975835397839546, -0.006150931119918823, -0.019415095448493958, -0.054706837981939316, -0.07416150718927383, 0.06811115145683289, 0.024260424077510834, -0.005513280630111694, -0.029627807438373566, 0.03470747172832489, 0.057132869958877563, 0.052354514598846436, 0.00018520653247833252, 0.0485287606716156, -0.041722673922777176, -0.03910177946090698, 0.040771596133708954, 0.08157704770565033, -0.011187516152858734, 0.06091952323913574, -0.07727068662643433, -0.06197599321603775, -0.04957905039191246, 0.035442791879177094, 0.07481618225574493, -0.0013378262519836426, -0.06897684186697006, 0.011908479034900665, -0.052991997450590134], [-0.07604721933603287, 0.025266848504543304, 0.06607948243618011, 0.03650563210248947, 0.06811997294425964, 0.04773062467575073, 0.07169084250926971, 0.04274545609951019, 0.07790409028530121, 0.00809304416179657, 0.07623697817325592, -0.03918875381350517, 0.0700918436050415, 0.039290301501750946, 0.016895785927772522, -0.053840383887290955, 0.007223941385746002, -0.04370421543717384, 0.004009045660495758, -0.015489406883716583, 0.026560664176940918, -0.04865355044603348, -0.006380528211593628, 0.014637447893619537, -0.06364800035953522, -0.05779454857110977, -0.04502018168568611, -0.04030497744679451, -0.01657126098871231, 0.029591858386993408, 0.062088385224342346, 0.026945844292640686, 0.07298997044563293, -0.011110499501228333, -0.011565923690795898, 0.07715937495231628, 0.0707988440990448, 0.01349128782749176, 0.01207096129655838, -0.018848419189453125, 0.0047893524169921875, -0.013584256172180176, -0.0012846365571022034, -0.04844406619668007, -0.07643023878335953, -0.07643026113510132, -0.055434778332710266, 0.06198681890964508, 0.0007509216666221619, -0.048881832510232925, 0.04696613550186157, 0.07548560202121735, 0.005918636918067932, 0.029361359775066376, 0.013553909957408905, 0.05449458956718445, -0.054473627358675, 0.05891945958137512, -0.003486543893814087, -0.014334253966808319, -0.07359840720891953, 0.029297173023223877, 0.041667595505714417, -0.017955996096134186, 0.06163586676120758, -0.07862812280654907, -0.020102646201848984, 0.06115090847015381, -0.08193470537662506, -0.06321290135383606, -0.013285279273986816, -0.04799235612154007, -0.022868797183036804, -0.057989224791526794, -0.0062716081738471985, -0.07064037770032883, 0.08114662766456604, -0.07584109157323837, 0.034662723541259766, -0.04911007359623909, -0.0015791133046150208, 0.04269671440124512, 0.0007395446300506592, 0.07781587541103363, -0.0007805600762367249, -0.014456599950790405, -0.011523276567459106, 0.029486283659934998, 0.022529713809490204, -0.057634759694337845, -0.04304017126560211, 0.0542164146900177, 0.021061383187770844, 0.0253121480345726, 0.07489556074142456, -0.009329564869403839, 0.030100636184215546, 0.018713906407356262, 0.07829123735427856, 0.017760373651981354], [-0.003363780677318573, -0.003998987376689911, 0.044396400451660156, 0.0012218579649925232, -0.021652258932590485, -0.06039729714393616, 0.07562524080276489, 0.0007216930389404297, -0.07193603366613388, 0.07859368622303009, -0.040548089891672134, 0.00919312983751297, -0.019005104899406433, -0.04725271090865135, -0.01758638769388199, -0.02454647421836853, 0.06701989471912384, 0.07492232322692871, -0.03957218676805496, -0.06287617981433868, -0.0621313638985157, -0.044961195439100266, 0.02730749547481537, 0.04985903203487396, -0.06321164965629578, -0.011211618781089783, 0.04489812254905701, 0.024377942085266113, -0.021402742713689804, 0.07061642408370972, -0.009385719895362854, 0.00849180668592453, 0.05288518965244293, -0.009678252041339874, -0.03569910302758217, 0.050187915563583374, 0.040690064430236816, 0.017935074865818024, -0.025586407631635666, 0.026478946208953857, 0.0549735426902771, -0.060166358947753906, 0.07461972534656525, 0.02653689682483673, 0.039188534021377563, -0.04384748637676239, -0.053572818636894226, -0.05257152020931244, 0.07672463357448578, -0.05827368050813675, 0.06343866884708405, -0.06979133933782578, -0.0705399215221405, 0.08224566280841827, 0.009765006601810455, 0.03648335486650467, -0.03454824909567833, -0.07609046995639801, -0.051773905754089355, -0.046582479029893875, -0.042920686304569244, 0.025899522006511688, 0.05939893424510956, -0.017560064792633057, 0.015536099672317505, -0.001012846827507019, 0.04617945849895477, -0.0011291727423667908, -0.017663046717643738, 0.004101172089576721, -0.07469671964645386, 0.07589352130889893, -0.021140165627002716, 0.07614240050315857, 0.034253790974617004, 0.06032857298851013, 0.010268181562423706, -0.0034149065613746643, -0.03156069293618202, -0.007867500185966492, 0.008134923875331879, 0.006232164800167084, 0.018890567123889923, 0.051679953932762146, 0.05286303162574768, -0.04583289474248886, 0.054425790905952454, -0.06788942962884903, -0.07607463747262955, 0.05912420153617859, 0.06666690111160278, -0.015957146883010864, 0.05039818584918976, 0.046510353684425354, -0.023152213543653488, -0.014080949127674103, 0.013414189219474792, -0.009579427540302277, 0.060195744037628174, -0.024482794106006622], [-0.02648118883371353, -0.05319821834564209, -0.04931442439556122, 0.08684323728084564, 0.033059701323509216, 0.07446256279945374, 0.07372583448886871, 0.050949689000844955, 0.015539892949163914, 0.05917954444885254, -0.006867433898150921, 0.07374469190835953, -0.04099553823471069, 0.03367828577756882, -0.00924701802432537, -0.08594562858343124, -0.019050613045692444, -0.03326693922281265, 0.012988653965294361, 0.0014718249440193176, 0.07311449944972992, 0.07338012754917145, 0.05365605279803276, 0.052558109164237976, 0.07197820395231247, -0.024697506800293922, -0.031259775161743164, -0.0389760285615921, -0.0016531225992366672, 0.005363562610000372, -0.06281986087560654, -0.03732270002365112, 0.077552430331707, -0.06824982911348343, -0.059689488261938095, -0.010466277599334717, -0.014714285731315613, 0.029538417235016823, -0.04736518859863281, -0.037418536841869354, 0.03407764434814453, 0.02779669314622879, -0.06630295515060425, -0.028705723583698273, 0.06530295312404633, -0.011372722685337067, 0.05519476160407066, 0.0828474909067154, 0.033579520881175995, -0.007741119246929884, 0.026155900210142136, 0.05517685413360596, -0.05427653715014458, 0.006233863066881895, 0.02428814023733139, 0.02138788253068924, -0.07875362783670425, 0.03936503455042839, 0.034827761352062225, -0.00823376327753067, -0.046693652868270874, 0.07346167415380478, 0.04502645134925842, -0.05314481258392334, 0.004233791958540678, 0.010832443833351135, 0.018890060484409332, -0.05405895784497261, 0.061253178864717484, 0.057715803384780884, 0.010161980986595154, 0.052562784403562546, 0.06183028221130371, -0.02173035405576229, 0.06845919787883759, 0.07318182289600372, 0.06519794464111328, -0.07070344686508179, -0.03018234297633171, 0.0527837909758091, -0.08236828446388245, 0.07193861901760101, -0.014405786991119385, -0.04460638388991356, 0.008022456429898739, 0.0673263818025589, 0.043148018419742584, 0.015924088656902313, -0.05723461136221886, -0.07758390158414841, 0.03336142748594284, 0.05978982150554657, 0.07472491264343262, -0.07143352925777435, 0.08150841295719147, -0.060109693557024, -0.02263590134680271, 0.06786543130874634, 0.04654387757182121, 0.005569912493228912], [0.030080456286668777, -0.1033073365688324, -0.10593335330486298, -0.053456325083971024, -0.008844085969030857, 0.04343061149120331, 0.11141669005155563, 0.05595030263066292, -0.03702167049050331, 0.06651902943849564, 0.048840079456567764, 0.0822465568780899, 0.02147013694047928, 0.018623195588588715, -0.010240312665700912, -0.09149544686079025, -0.049824461340904236, 0.11015103757381439, 0.00391493970528245, -0.04415378347039223, -0.01247483491897583, 0.02357397973537445, 0.024107148870825768, -0.07106321305036545, 0.06477484107017517, 0.060411468148231506, 0.07570554316043854, 0.002365685999393463, -0.03719310462474823, -0.010057451203465462, -0.07794535905122757, 0.06454727053642273, 0.10813398659229279, -0.060381848365068436, 0.04882826656103134, -0.10958007723093033, 0.03762747347354889, -0.006393876858055592, -0.04505763575434685, -0.036856759339571, -0.026001645252108574, -0.0798441469669342, 0.05637400969862938, -0.03825348988175392, -0.08853337913751602, -0.06450256705284119, 0.06851521134376526, 0.03793912008404732, -0.0069258734583854675, -0.06970331817865372, 0.018575560301542282, -0.0314263179898262, 0.06418554484844208, -0.0904310792684555, -0.06762383133172989, -0.03727756440639496, -0.12688763439655304, -0.08137199282646179, 0.05636497586965561, -0.01868540793657303, 0.052356474101543427, 0.06310278922319412, -0.007437298074364662, -0.01904095895588398, -0.004930293187499046, 0.0252427626401186, 0.04162907600402832, 0.07158028334379196, 0.12084734439849854, 0.04117508977651596, -0.009735584259033203, -0.04822088032960892, 0.025929076597094536, 0.04662862420082092, 0.12870632112026215, -0.014478132128715515, 0.04283194988965988, -0.0370824821293354, -0.0762985572218895, -0.04254794120788574, 0.019821904599666595, -0.01971219666302204, -0.05504344403743744, 0.04066038876771927, 0.0656566247344017, 0.005196989979594946, -0.030313147231936455, -0.0782918632030487, -0.03029060736298561, -0.005739465355873108, -0.038327720016241074, -0.045817356556653976, -0.030944127589464188, 0.022406620904803276, -0.06771604716777802, 0.0009241849184036255, -0.051036689430475235, -0.03137220814824104, 0.12219151854515076, -0.020631100982427597], [0.003522544400766492, -0.15941351652145386, -0.01028453465551138, 0.07181204855442047, 0.1130918487906456, 0.004993349313735962, 0.1440516710281372, -0.016805492341518402, 0.11541888862848282, 0.05996733903884888, -0.07546257972717285, 0.19317175447940826, -0.08810350298881531, 0.10118313878774643, 0.16213950514793396, -0.09345950186252594, 0.07970333844423294, 0.12456967681646347, 0.10422813892364502, 0.02961120754480362, 0.1061360314488411, -0.06681586802005768, 0.1532578468322754, -0.09163437783718109, -0.01926351524889469, 0.08301571756601334, 0.041154664009809494, -0.04484998807311058, -0.07570231705904007, -0.08933483809232712, 0.05501261353492737, 0.05623504891991615, 0.20625267922878265, -0.1754211187362671, 0.15590596199035645, -0.13202980160713196, -0.06874999403953552, -0.1479635387659073, 0.06166470795869827, 0.03749976307153702, -0.0916358083486557, -0.0026893853209912777, 0.2009200155735016, -0.05297374352812767, -0.15478822588920593, -0.09658007323741913, 0.046078599989414215, 0.15972992777824402, -0.08972713351249695, 0.07477162778377533, 0.13322484493255615, 0.0202125683426857, 0.05023423582315445, -0.2039870172739029, -0.16541875898838043, -0.027351943776011467, -0.10977190732955933, -0.05319344997406006, -0.10022948682308197, 0.019130421802401543, 0.12631377577781677, 0.05228634178638458, -0.029225103557109833, -0.05142126604914665, -0.20948821306228638, 0.09498046338558197, -0.05644116550683975, -0.08104582130908966, 0.004062308929860592, -0.09519738703966141, 0.036712996661663055, -0.11743682622909546, -0.07299456000328064, -0.020202964544296265, 0.02789507992565632, -0.10694767534732819, 0.10595884919166565, 0.06839576363563538, -0.026353612542152405, -0.03530678153038025, 0.08072258532047272, -0.0952785313129425, 0.0058339484967291355, 0.14904402196407318, -0.05608956888318062, 0.06435280293226242, -0.040988001972436905, -0.005710558965802193, -0.07534157484769821, -0.024533960968255997, -0.09904321283102036, -0.08565950393676758, 0.037998005747795105, -0.010060648433864117, 0.006544643081724644, 0.08040179312229156, 0.12272235751152039, -0.006949623581022024, 0.21781298518180847, -0.025487253442406654], [-0.021955862641334534, -0.17739306390285492, -0.0888407751917839, 0.1603386104106903, 0.12157076597213745, -0.0192881990224123, 0.044361840933561325, 0.02806374803185463, 0.09658952802419662, -0.025101972743868828, -0.06117253005504608, 0.19018401205539703, 0.029409408569335938, 0.04698628932237625, 0.1829540729522705, -0.09503182768821716, 0.019174864515662193, -0.004362576641142368, 0.21236783266067505, 0.04492723196744919, 0.06023938208818436, -0.0895247682929039, 0.1523742824792862, 0.06473520398139954, -0.011825164780020714, 0.06272844970226288, 0.13421256840229034, -0.05879849195480347, -0.14880074560642242, -0.13843503594398499, 0.053413473069667816, -0.0006762720295228064, 0.18968015909194946, -0.14124435186386108, 0.12393438816070557, -0.2025700807571411, 0.03210373967885971, -0.09377731382846832, 0.1589232087135315, -0.0656530037522316, -0.15334558486938477, -0.06866215169429779, 0.03846427798271179, -0.05899953469634056, -0.1915576159954071, -0.007274243514984846, 0.08159514516592026, 0.174157053232193, -0.03119557537138462, 0.0553283654153347, 0.1821647435426712, -0.009197261184453964, 0.049108147621154785, -0.14344389736652374, -0.07217736542224884, -0.07527671754360199, -0.03462885320186615, -0.024421753361821175, -0.07466503977775574, 0.024097668007016182, 0.11127543449401855, 0.11154433339834213, -0.13732711970806122, 0.03041623719036579, -0.19913151860237122, 0.13954952359199524, -0.05703587085008621, -0.15170316398143768, 0.08598018437623978, -0.00919733103364706, -0.06073930487036705, -0.1254560798406601, -0.049110207706689835, -0.05881015583872795, 0.13218286633491516, -0.00225955992937088, 0.06942073255777359, 0.07259538769721985, 0.001978127518668771, 0.009525527246296406, 0.02691502869129181, -0.06391391903162003, -0.06466404348611832, 0.18696968257427216, -0.07000477612018585, 0.10139289498329163, -0.050804026424884796, -0.07370761036872864, -0.14388848841190338, -0.014144047163426876, -0.07216081023216248, -0.13019074499607086, 0.0763397216796875, 0.05653752386569977, 0.04929383471608162, -0.005501142702996731, 0.17721980810165405, 0.0460752472281456, 0.14195582270622253, 0.022264186292886734], [0.09236469119787216, -0.012352382764220238, -0.14406685531139374, 0.07533401250839233, 0.04061291366815567, -0.021808048710227013, 0.014623254537582397, 0.039256639778614044, 0.028763290494680405, 0.021887512877583504, -0.003354601329192519, -0.010408014990389347, 0.0370994508266449, 0.07620704174041748, 0.14713484048843384, -0.038053520023822784, 0.023451941087841988, 0.12479418516159058, 0.0726076066493988, -0.03325197473168373, 0.1625114530324936, 0.040674641728401184, 0.10859490931034088, -0.06420105695724487, -0.01938294805586338, 0.05001905933022499, 0.05907861143350601, 0.06932517886161804, -0.004165275953710079, -0.02833075262606144, -0.057093024253845215, 0.10261077433824539, 0.025387099012732506, -0.014912063255906105, 0.10427089035511017, -0.020993055775761604, -0.06324151903390884, -0.10609469562768936, 0.019873959943652153, 0.014161147177219391, -0.0892905592918396, 0.002072886796668172, 0.05914730578660965, -0.04530402272939682, -0.012440064921975136, -0.11678615212440491, 0.04739398881793022, 0.10934854298830032, 0.05183379724621773, 0.11328194290399551, 0.12054302543401718, -0.14453664422035217, -0.051117490977048874, -0.1318771094083786, -0.012200595811009407, 0.02078946679830551, -0.028885606676340103, -0.16617679595947266, -0.09220590442419052, 0.06413406133651733, -0.048541389405727386, 0.11540015786886215, -0.04796655848622322, 0.01382348034530878, -0.22509613633155823, -0.001268535852432251, 0.02194242924451828, -0.042586568742990494, 0.085530124604702, -0.03866184875369072, -0.053560756146907806, -0.05039779841899872, -0.03003704734146595, 0.004380588885396719, 0.08444078266620636, -0.07882456481456757, 0.05103195086121559, 0.026117533445358276, 0.015281572006642818, -0.07500907778739929, 0.03698992729187012, -0.0897865742444992, -0.006914910394698381, 0.1590103954076767, 0.04444678872823715, 0.041929520666599274, -0.06982988119125366, -0.052859220653772354, -0.1600441038608551, -0.030414367094635963, -0.03633405640721321, -0.032362185418605804, -0.028964335098862648, 0.1222316101193428, -0.0549268014729023, 0.05438020080327988, 0.10947109758853912, 0.010407530702650547, 0.11932901293039322, 0.02849816530942917], [0.18783870339393616, 0.042941853404045105, -0.11625389754772186, 0.14617814123630524, 0.08444487303495407, -0.10976970940828323, 0.11256136745214462, 0.03856220468878746, -0.01256094966083765, 0.03733059763908386, -0.06878011673688889, 0.05449526011943817, -0.03074987418949604, 0.019267266616225243, 0.09534214437007904, -0.06442457437515259, -0.07374078780412674, 0.10258375853300095, 0.04352106526494026, 0.015193302184343338, 0.14751526713371277, 0.0075445291586220264, 0.12457838654518127, 0.01061677560210228, 0.021220766007900238, 0.08223892748355865, 0.027460183948278427, 0.08851102739572525, 0.0023520365357398987, 0.0005757329054176807, -0.08804557472467422, 0.049995265901088715, 0.09011954814195633, -0.04847569018602371, 0.06101440265774727, -0.09391806274652481, -0.04808947071433067, 0.0002505573502276093, 0.16838450729846954, 0.02947046235203743, -0.05240776389837265, -0.07117195427417755, 0.08911706507205963, 0.04623870551586151, -0.14051294326782227, -0.07660718262195587, 0.05703149735927582, 0.042342640459537506, -0.04866806045174599, -0.054736752063035965, 0.018992386758327484, -0.10337716341018677, -0.04378003254532814, -0.07296781241893768, -0.15921969711780548, 0.02354835346341133, 0.019256707280874252, -0.05485221743583679, -0.016075436025857925, 0.07010834664106369, -0.057074714452028275, 0.2559938430786133, -0.15262925624847412, 0.11647140234708786, -0.21355313062667847, 0.04480515420436859, -0.05595731735229492, -0.037325914949178696, 0.0750395879149437, 0.06416469812393188, 0.0595085471868515, -0.1287526786327362, -0.05089465156197548, -0.07005275040864944, 0.05988481640815735, 0.03400184214115143, 0.08710816502571106, 0.055595993995666504, -0.0647159293293953, -0.13557463884353638, 0.05431310832500458, -0.08344031125307083, -0.06321045011281967, 0.03462325781583786, -0.056810133159160614, 0.05419167876243591, 0.01094520278275013, -0.06604164093732834, -0.13121898472309113, 0.04589630663394928, -0.1019514948129654, -0.119822658598423, -0.016219137236475945, -0.011417186819016933, 0.030044937506318092, 0.0525854118168354, 0.03857268765568733, -0.0007250960334204137, 0.006296422798186541, 0.0315580815076828], [-0.019584426656365395, 0.09900305420160294, -0.05238865315914154, -0.0076719969511032104, 0.09074784815311432, 0.0176909901201725, 0.16581524908542633, -0.01794549450278282, 0.09647650271654129, 0.1377868801355362, -0.08504491299390793, 0.12047894299030304, -0.0031150514259934425, 0.1015952080488205, 0.12544502317905426, -0.2208697646856308, -0.028399065136909485, 0.024996131658554077, 0.1168714389204979, -0.056565191596746445, 0.14132817089557648, -0.026555491611361504, 0.04035680741071701, -0.015122578479349613, 0.08004503697156906, 0.08164368569850922, 0.07014723122119904, 0.07358714938163757, -0.078748919069767, -0.0633128434419632, -0.08497623354196548, 0.07110550254583359, 0.18148887157440186, -0.01608176901936531, 0.12961868941783905, -0.09047579020261765, 0.025343656539916992, -0.04516712576150894, 0.05525239557027817, -0.039638616144657135, -0.10304379463195801, 0.10907122492790222, 0.10292646288871765, -0.0970304012298584, -0.15591682493686676, -0.11729127913713455, 0.11850224435329437, 0.12104456126689911, -0.061156999319791794, -0.008268585428595543, 0.039448924362659454, 0.028237881138920784, 0.0039335452020168304, -0.07723858207464218, -0.07766138017177582, 0.13074570894241333, -0.02407498098909855, 0.015619932673871517, -0.04934421554207802, 0.05897688865661621, -0.01926245354115963, 0.16565778851509094, -0.05456621199846268, -0.039616018533706665, -0.22448000311851501, 0.02996458113193512, 0.01172202080488205, 0.11433032155036926, 0.11716903001070023, -0.05263851583003998, -0.038470007479190826, -0.11034374684095383, -0.10146338492631912, -0.10906221717596054, 0.21646878123283386, -0.11293545365333557, 0.12212204188108444, -0.05988473445177078, 0.03677460178732872, -0.09552492946386337, -0.07158982008695602, 0.05932718887925148, 0.051877234131097794, 0.1568489372730255, 0.11374785751104355, -0.041386719793081284, -0.05538303405046463, -0.06445702165365219, -0.050497204065322876, 0.00048113364027813077, -0.05517343431711197, 0.004706355277448893, 0.0797300934791565, 0.06874192506074905, -0.09821970760822296, 0.03466980159282684, 0.14567850530147552, -0.017507269978523254, 0.1147201880812645, 0.038971442729234695], [-0.13882814347743988, 0.1326107531785965, -0.05869782716035843, 0.22423170506954193, 0.17940671741962433, 0.10623680800199509, 0.02079392410814762, -0.1941511034965515, 0.1635773628950119, 0.2037576586008072, -0.13549742102622986, 0.22787894308567047, -0.012376888655126095, 0.04907360300421715, 0.2395201474428177, -0.08385293930768967, 0.0729222521185875, 0.050634317100048065, 0.13309183716773987, -0.09012193977832794, 0.08758494257926941, -0.0972263365983963, 0.11685362458229065, -0.10086826235055923, 0.10588160902261734, 0.22539490461349487, 0.035956043750047684, 0.0844772681593895, -0.01858033426105976, -0.1607762724161148, 0.04560751095414162, 0.2673872411251068, 0.16373790800571442, -0.12109235674142838, 0.10636626183986664, 0.013064725324511528, 0.1242864802479744, 0.031972870230674744, -0.11299554258584976, 0.13428755104541779, -0.17414508759975433, -0.011327450163662434, 0.05962325632572174, -0.06226656213402748, 0.020116444677114487, -0.08781056851148605, 0.12231519818305969, 0.16137397289276123, -0.014054588042199612, 0.10796484351158142, 0.10949067026376724, -0.11319644004106522, -0.10692396014928818, -0.019933559000492096, 0.0025731418281793594, -0.08271084725856781, -0.09505645185709, -0.04951438680291176, -0.027584096416831017, -0.11061445623636246, -0.021617848426103592, 0.08380073308944702, -0.11864940822124481, -0.022186467424035072, -0.008246923796832561, 0.015887830406427383, -0.011499986052513123, -0.05585132911801338, -0.09625864028930664, -0.04501369222998619, 0.06316930055618286, -0.027173466980457306, -0.03824679180979729, 0.08634421229362488, 0.20066776871681213, -0.004627835471183062, 0.12752465903759003, 0.06921593844890594, -0.05187118798494339, -0.032210007309913635, -0.015382982790470123, -0.07522104680538177, 0.09184301644563675, 0.1573682725429535, 0.13183704018592834, -0.16627401113510132, -0.031681519001722336, -0.02684652991592884, -0.031515199691057205, -0.016675526276230812, -0.22569908201694489, 0.017712686210870743, 0.03899079188704491, 0.03118249960243702, -0.05341433361172676, 0.04941419139504433, 0.11096411198377609, -0.1793125867843628, 0.20489345490932465, -0.011486143805086613], [-0.01408491749316454, 0.15454839169979095, -0.09452056884765625, 0.3480985462665558, 0.2632412910461426, 0.0476861447095871, 0.26324722170829773, 0.11956501007080078, 0.298340767621994, 0.08050213009119034, -0.10633876174688339, 0.3910190463066101, -0.23720824718475342, 0.09250923991203308, 0.31509649753570557, -0.2741188704967499, -0.07958345115184784, -0.10998794436454773, 0.38787195086479187, 0.08859657496213913, 0.3847239911556244, -0.34897366166114807, 0.3363400399684906, -0.2096422165632248, 0.08798210322856903, 0.15238937735557556, 0.06604357063770294, 0.11753528565168381, -0.04042006656527519, -0.2820568382740021, 0.06547345966100693, 0.2984306812286377, 0.32895204424858093, -0.2089664489030838, 0.21966394782066345, -0.08214621245861053, -0.06262396275997162, -0.08274120092391968, 0.10380510240793228, 0.16035549342632294, -0.13224489986896515, -0.03599392995238304, 0.19498324394226074, -0.040217943489551544, -0.04013540595769882, -0.14607840776443481, 0.28798505663871765, 0.24639542400836945, 0.03810911253094673, 0.07605680823326111, 0.25404390692710876, -0.18078412115573883, -0.19882284104824066, -0.25487229228019714, -0.2237979918718338, 0.03976147621870041, -0.2559639513492584, -0.08114487677812576, -0.10828892886638641, -0.11182424426078796, -0.2162262350320816, 0.19107036292552948, -0.03274993225932121, -0.07118328660726547, -0.1418403536081314, 0.007376538589596748, -0.04535602405667305, -0.051280081272125244, -0.05365636944770813, -0.024915069341659546, 0.06945109367370605, -0.2865124046802521, 0.06407815217971802, -0.011154135689139366, 0.25991004705429077, -0.15618516504764557, 0.2678396701812744, -0.07919701188802719, 0.04999929666519165, -0.07622069865465164, 0.003159463405609131, 0.038073644042015076, 0.0970766469836235, 0.430225133895874, 0.07907310873270035, -0.30630382895469666, -0.06517258286476135, -0.07926923781633377, -0.11986441910266876, -0.0011064987629652023, -0.3171387016773224, -0.060270775109529495, 0.10077616572380066, -0.025661909952759743, -0.347259521484375, -0.059523921459913254, 0.2159366011619568, -0.07638271152973175, 0.3295057713985443, 0.041582029312849045], [-0.16363191604614258, 0.13150539994239807, -0.059072598814964294, 0.3570767939090729, 0.03640754520893097, 0.05463786795735359, 0.1631229817867279, 0.03829006850719452, 0.17579738795757294, 0.04479026794433594, -0.055328816175460815, 0.19558875262737274, -0.10896323621273041, 0.01211775653064251, 0.18060751259326935, -0.3625258505344391, -0.12660953402519226, 0.03408707678318024, 0.30589717626571655, 0.02981003001332283, 0.347025990486145, -0.02255294658243656, 0.15681999921798706, -0.2200346738100052, 0.15335118770599365, 0.05270928889513016, 0.005971251521259546, 0.01594354771077633, -0.08921166509389877, -0.21975314617156982, -0.054427698254585266, -0.026507293805480003, 0.0930664911866188, -0.07411975413560867, 0.08838499337434769, 0.0008758582407608628, 0.037003424018621445, -0.2407265305519104, 0.04899699613451958, 0.1855475753545761, -0.17634214460849762, -0.06881040334701538, 0.18954657018184662, -0.00846224743872881, -0.23967011272907257, -0.17608140408992767, 0.16900993883609772, 0.12627123296260834, 0.07493490725755692, -0.004645778797566891, 0.012796060182154179, 0.09824909269809723, -0.16218553483486176, -0.09039365500211716, -0.353872686624527, 0.08573730289936066, -0.05036266893148422, 0.04651565104722977, -0.04254837706685066, -0.06055024266242981, -0.08503221720457077, 0.09182070940732956, -0.13342757523059845, 0.02874109521508217, -0.13302607834339142, -0.08467621356248856, 0.07722695171833038, -0.07117399573326111, -0.08201128244400024, -0.06051197648048401, 0.0797671526670456, -0.165681391954422, 0.11632387340068817, 0.07424777001142502, 0.3095415234565735, 0.10671032965183258, 0.1255980283021927, 0.0453631766140461, 0.14604730904102325, 0.04137200862169266, 0.04033420979976654, -0.05424072593450546, 0.05139579623937607, 0.6266352534294128, 0.05965343490242958, -0.12643839418888092, 0.007275800220668316, -0.1137673631310463, 0.05047503113746643, -0.09191355109214783, -0.21071477234363556, -0.12243227660655975, 0.11028260737657547, 0.06704094260931015, -0.2743785083293915, 0.020223649218678474, 0.2585897147655487, -0.02664913237094879, 0.007543017156422138, 0.030214013531804085], [-0.2903689742088318, -0.20041315257549286, 0.2357458770275116, -0.0023004557006061077, -0.12765592336654663, 0.22165116667747498, -0.15982547402381897, -0.09071753919124603, -0.12448674440383911, -0.1901465356349945, -0.05306035280227661, -0.0557393915951252, 0.13361956179141998, -0.34027108550071716, -0.15088985860347748, 0.03872966021299362, -0.05469466373324394, -0.11293675005435944, 0.024150632321834564, 0.2734222114086151, 0.061837635934352875, 0.047476306557655334, -0.09893157333135605, -0.07692717760801315, -0.017877649515867233, 0.14387908577919006, -0.23060370981693268, 0.0648019015789032, 0.01396260317414999, -0.04025593772530556, 0.15566232800483704, -0.14103001356124878, 0.029401566833257675, 0.2214023917913437, -0.013109353370964527, 0.23318544030189514, 0.12762969732284546, -0.16898204386234283, -0.33413106203079224, 0.028175270184874535, 0.3137342035770416, 0.2040001004934311, 0.09946122020483017, 0.14783108234405518, -0.26138412952423096, -0.11779138445854187, -0.11937553435564041, -0.22931545972824097, 0.16686059534549713, 0.054111137986183167, -0.019638551399111748, 0.3589201867580414, -0.14018626511096954, 0.11971557885408401, -0.1260126382112503, 0.2862313687801361, 0.05679509416222572, 0.013867398723959923, -0.06686580926179886, 0.11736422777175903, -0.07623825967311859, -0.09926017373800278, -0.028637723997235298, 0.011350562795996666, -0.1644623726606369, -0.04261838644742966, 0.010969072580337524, 0.3291250765323639, 0.18488709628582, -0.07291708141565323, -0.015398621559143066, 0.14484085142612457, 0.28870242834091187, -0.043051864951848984, 0.31585586071014404, 0.11328184604644775, -0.12218496203422546, 0.03996305912733078, 0.004669893532991409, -0.0011118625989183784, -0.006094880402088165, -0.05258854851126671, -0.17978733777999878, 0.6879151463508606, -0.03681251406669617, -0.1099638044834137, 0.039721060544252396, -0.04283137619495392, 0.10495907068252563, 0.1871127039194107, -0.10086192190647125, -0.04269646480679512, -0.0025840257294476032, 0.08106035739183426, -0.08231845498085022, -0.050568677484989166, -0.2669552266597748, 0.33869314193725586, -0.18045876920223236, 0.10042957961559296], [-0.2412579357624054, -0.25719723105430603, 0.10813482850790024, -0.1251506358385086, 0.24019171297550201, 0.18488866090774536, 0.041695304214954376, -0.24364691972732544, -0.03603959456086159, -0.10569057613611221, -0.16173849999904633, 0.03239891305565834, 0.2817728519439697, -0.19591966271400452, 0.11171688139438629, -0.08193190395832062, 0.09637771546840668, -0.18646159768104553, 0.3124457895755768, 0.24799634516239166, 0.11437979340553284, -0.264211505651474, 0.07603668421506882, -0.07879874110221863, 0.09947867691516876, 0.016108641400933266, -0.20184104144573212, -0.03398129716515541, -0.05170188099145889, -0.24620085954666138, 0.21382473409175873, 0.15880711376667023, 0.3805654048919678, -0.4036184549331665, 0.06141823157668114, -0.36327698826789856, 0.11830920726060867, -0.4561425745487213, -0.3267740309238434, 0.04388270899653435, 0.10670869052410126, -0.03251519054174423, 0.16106252372264862, 0.26903223991394043, 0.0974392294883728, -0.13009512424468994, 0.3830679655075073, -0.19560647010803223, -0.056894779205322266, 0.061683569103479385, 0.4741259813308716, 0.10504943877458572, -0.20575176179409027, -0.32583433389663696, -0.25116482377052307, 0.2217435985803604, -0.18947702646255493, -0.2516624927520752, -0.10818580538034439, 0.10476623475551605, -0.015340510755777359, 0.15114283561706543, -0.10393524914979935, 0.0006400214042514563, -0.31841135025024414, 0.1006002277135849, -0.05725497752428055, 0.16542014479637146, 0.08473458141088486, -0.19714254140853882, -0.011863812804222107, -0.19130447506904602, 0.37292516231536865, 0.01420274842530489, 0.01654934138059616, 0.08454260975122452, 0.04620067775249481, 0.04561604931950569, 0.038099318742752075, 0.0022954600863158703, 0.008295763283967972, 0.0823827013373375, -0.12053143978118896, 0.5137799382209778, 0.03740077465772629, -0.08613375574350357, -0.19935612380504608, -0.010584109462797642, -0.29679301381111145, 0.2566205859184265, -0.3650485575199127, 0.01677858829498291, -0.06630901992321014, 0.12198054045438766, -0.1801481693983078, -0.012534163892269135, -0.13834220170974731, 0.26133647561073303, 0.21508540213108063, 0.09459447115659714], [0.016281306743621826, -0.3933773934841156, -0.16817639768123627, 0.2654110789299011, 0.07363075762987137, 0.02316887490451336, 0.1703561693429947, -0.3000333309173584, -0.17260172963142395, 0.27021557092666626, -0.22598719596862793, -0.012646296992897987, 0.2698107361793518, 0.20695815980434418, 0.4200698733329773, 0.17009012401103973, 0.12795794010162354, 0.039733998477458954, 0.24660776555538177, -0.0491546168923378, 0.11857238411903381, 0.14385755360126495, 0.25699132680892944, -0.0013456913875415921, 0.18996508419513702, 0.1528930366039276, 